{"learner":{"attributes":{"best_iteration":"271","best_score":"0.6318497460792484"},"feature_names":["year","h","sp","avg_madm_school","avg_madm_sp","count_per_school_sp"],"feature_types":["int","float","float","float","float","int"],"gradient_booster":{"model":{"gbtree_model_param":{"num_parallel_tree":"1","num_trees":"272"},"iteration_indptr":[0,1,2,3,4,5,6,7,8,9,10,11,12,13,14,15,16,17,18,19,20,21,22,23,24,25,26,27,28,29,30,31,32,33,34,35,36,37,38,39,40,41,42,43,44,45,46,47,48,49,50,51,52,53,54,55,56,57,58,59,60,61,62,63,64,65,66,67,68,69,70,71,72,73,74,75,76,77,78,79,80,81,82,83,84,85,86,87,88,89,90,91,92,93,94,95,96,97,98,99,100,101,102,103,104,105,106,107,108,109,110,111,112,113,114,115,116,117,118,119,120,121,122,123,124,125,126,127,128,129,130,131,132,133,134,135,136,137,138,139,140,141,142,143,144,145,146,147,148,149,150,151,152,153,154,155,156,157,158,159,160,161,162,163,164,165,166,167,168,169,170,171,172,173,174,175,176,177,178,179,180,181,182,183,184,185,186,187,188,189,190,191,192,193,194,195,196,197,198,199,200,201,202,203,204,205,206,207,208,209,210,211,212,213,214,215,216,217,218,219,220,221,222,223,224,225,226,227,228,229,230,231,232,233,234,235,236,237,238,239,240,241,242,243,244,245,246,247,248,249,250,251,252,253,254,255,256,257,258,259,260,261,262,263,264,265,266,267,268,269,270,271,272],"tree_info":[0,0,0,0,0,0,0,0,0,0,0,0,0,0,0,0,0,0,0,0,0,0,0,0,0,0,0,0,0,0,0,0,0,0,0,0,0,0,0,0,0,0,0,0,0,0,0,0,0,0,0,0,0,0,0,0,0,0,0,0,0,0,0,0,0,0,0,0,0,0,0,0,0,0,0,0,0,0,0,0,0,0,0,0,0,0,0,0,0,0,0,0,0,0,0,0,0,0,0,0,0,0,0,0,0,0,0,0,0,0,0,0,0,0,0,0,0,0,0,0,0,0,0,0,0,0,0,0,0,0,0,0,0,0,0,0,0,0,0,0,0,0,0,0,0,0,0,0,0,0,0,0,0,0,0,0,0,0,0,0,0,0,0,0,0,0,0,0,0,0,0,0,0,0,0,0,0,0,0,0,0,0,0,0,0,0,0,0,0,0,0,0,0,0,0,0,0,0,0,0,0,0,0,0,0,0,0,0,0,0,0,0,0,0,0,0,0,0,0,0,0,0,0,0,0,0,0,0,0,0,0,0,0,0,0,0,0,0,0,0,0,0,0,0,0,0,0,0,0,0,0,0,0,0,0,0,0,0,0,0,0,0,0,0,0,0,0,0,0,0,0,0],"trees":[{"base_weights":[5.4894974E-3,-1.6781749E0,1.4299124E0,-2.617051E0,-9.378094E-1,6.3255775E-1,2.2338507E0,-3.3159828E0,-2.2451775E0,-1.3730985E0,-5.932707E-1,2.4315695E-1,1.032739E0,1.8678867E0,2.7045677E0,-3.7758162E0,-3.0866957E0,-2.0048182E0,-2.8071783E0,-1.205113E0,-1.8453312E0,-4.540761E-1,-1.0104525E0,6.3829625E-1,1.0737017E-1,1.3969386E0,8.92878E-1,1.6694745E0,2.0738647E0,2.5227075E0,2.9680237E-2,-4.1121412E-2,-3.583737E-2,-2.8640203E0,-3.5274964E-2,-2.2584019E0,-1.6417584E0,-3.075105E0,-2.4497597E0,-1.4642023E0,-7.4777097E-1,-2.249112E0,-1.6272044E0,-6.6102E-1,-5.928658E-2,-1.8060668E0,-9.076361E-1,5.602667E-1,1.2492353E0,-3.213783E-1,3.2161626E-1,1.2500427E0,1.7098583E0,4.9955195E-1,1.1076072E0,1.4334338E0,1.7729182E0,2.2752432E-2,1.9979934E0,2.4099285E-2,2.6268354E-2,-3.0939726E-2,-2.5276197E-2,-2.5553878E-2,-2.0710027E-2,-1.844229E-2,-1.35430265E-2,-3.0799365E-2,-8.852841E-3,-2.6711626E-2,-2.230206E-2,-1.1868583E-2,-1.741307E-2,-8.764157E-3,-4.7031343E-3,-2.978986E-2,-2.144313E-2,-5.3048707E-3,-1.6532812E-2,-2.5079362E-3,-1.08814975E-2,-2.5464748E-3,1.7000869E-3,-1.8499177E-2,-5.1704547E-3,-1.2249268E-2,-7.0770276E-3,4.094341E-3,8.323036E-3,1.0198232E-2,1.474003E-2,-5.716313E-3,-9.886159E-4,5.3731413E-3,1.0463604E-3,5.877006E-3,1.2838594E-2,9.295265E-3,1.7315527E-2,1.2083306E-3,6.7789536E-3,8.909138E-3,1.2941161E-2,-1.685284E-2,1.4497738E-2,2.021314E-2,1.6861875E-2,1.7728128E-2,2.1055989E-2],"categories":[],"categories_nodes":[],"categories_segments":[],"categories_sizes":[],"default_left":[0,0,0,0,0,0,0,0,0,0,0,0,0,0,0,0,0,0,0,0,0,0,0,0,0,0,0,0,0,0,0,0,0,0,0,0,0,0,0,0,0,0,0,0,0,0,0,0,0,0,0,0,0,0,0,0,0,0,0,0,0,0,0,0,0,0,0,0,0,0,0,0,0,0,0,0,0,0,0,0,0,0,0,0,0,0,0,0,0,0,0,0,0,0,0,0,0,0,0,0,0,0,0,0,0,0,0,0,0],"id":0,"left_children":[1,3,5,7,9,11,13,15,17,19,21,23,25,27,29,31,33,35,37,39,41,43,45,47,49,51,53,55,57,59,-1,-1,-1,61,-1,63,65,67,69,71,73,75,77,79,81,83,85,87,89,91,93,95,97,99,101,103,105,-1,107,-1,-1,-1,-1,-1,-1,-1,-1,-1,-1,-1,-1,-1,-1,-1,-1,-1,-1,-1,-1,-1,-1,-1,-1,-1,-1,-1,-1,-1,-1,-1,-1,-1,-1,-1,-1,-1,-1,-1,-1,-1,-1,-1,-1,-1,-1,-1,-1,-1,-1],"loss_changes":[2.9299424E4,3.8894736E3,4.240885E3,6.3402344E2,4.6890356E2,5.1773083E2,5.6256055E2,7.8490234E1,2.1239453E2,1.0748706E2,1.0116272E2,9.039331E1,8.223901E1,7.243115E1,6.1458984E1,3.3513184E0,4.643506E1,1.0069531E2,3.8528076E1,1.20122925E2,2.8135498E1,1.0731366E2,3.4108307E1,1.9846436E1,1.1547661E2,1.8685486E1,9.9699036E1,2.06792E1,9.312256E0,3.7456055E0,0E0,0E0,0E0,2.2193848E1,0E0,3.1718506E1,2.4857056E1,1.4038086E-1,4.2994385E0,4.8041626E1,1.2865768E1,3.0969238E0,5.9295044E0,1.5076663E2,2.033558E1,1.8132172E0,2.381012E1,1.5415527E1,9.7187805E-1,2.32757E1,3.9163994E1,6.2337036E0,7.9434204E-1,2.835328E1,2.9845459E1,1.7476501E1,1.0745605E1,0E0,1.2429199E1,0E0,0E0,0E0,0E0,0E0,0E0,0E0,0E0,0E0,0E0,0E0,0E0,0E0,0E0,0E0,0E0,0E0,0E0,0E0,0E0,0E0,0E0,0E0,0E0,0E0,0E0,0E0,0E0,0E0,0E0,0E0,0E0,0E0,0E0,0E0,0E0,0E0,0E0,0E0,0E0,0E0,0E0,0E0,0E0,0E0,0E0,0E0,0E0,0E0,0E0],"parents":[2147483647,0,0,1,1,2,2,3,3,4,4,5,5,6,6,7,7,8,8,9,9,10,10,11,11,12,12,13,13,14,14,15,15,16,16,17,17,18,18,19,19,20,20,21,21,22,22,23,23,24,24,25,25,26,26,27,27,28,28,29,29,33,33,35,35,36,36,37,37,38,38,39,39,40,40,41,41,42,42,43,43,44,44,45,45,46,46,47,47,48,48,49,49,50,50,51,51,52,52,53,53,54,54,55,55,56,56,58,58],"right_children":[2,4,6,8,10,12,14,16,18,20,22,24,26,28,30,32,34,36,38,40,42,44,46,48,50,52,54,56,58,60,-1,-1,-1,62,-1,64,66,68,70,72,74,76,78,80,82,84,86,88,90,92,94,96,98,100,102,104,106,-1,108,-1,-1,-1,-1,-1,-1,-1,-1,-1,-1,-1,-1,-1,-1,-1,-1,-1,-1,-1,-1,-1,-1,-1,-1,-1,-1,-1,-1,-1,-1,-1,-1,-1,-1,-1,-1,-1,-1,-1,-1,-1,-1,-1,-1,-1,-1,-1,-1,-1,-1],"split_conditions":[6.2211113E0,4.5675E0,7.8366666E0,3.5316668E0,5.3625E0,7.0425E0,8.724E0,2.955E0,2.023E3,2.023E3,2.023E3,2.021E3,2.021E3,8.291333E0,9.2E0,2.55E0,2.023E3,2.022E3,4.127E0,2.022E3,4.71E0,2.022E3,4.5233335E0,7.894375E0,2.022E3,7.7294593E0,2.022E3,6.513548E0,2.021E3,8.965E0,2.9680237E-2,-4.1121412E-2,-3.583737E-2,2.022E3,-3.5274964E-2,4.502857E0,4.15E0,7.513401E0,6.056731E0,2.021E3,6.2568455E0,3.4825E0,5.8726344E0,2.021E3,5.83E0,6.272216E0,5.71E0,6.735E0,6.65E0,6.3750033E0,2.023E3,5.144E0,7.0725E0,7.27E0,7.3775E0,3.235E0,2.021E3,2.2752432E-2,2.022E3,2.4099285E-2,2.6268354E-2,-3.0939726E-2,-2.5276197E-2,-2.5553878E-2,-2.0710027E-2,-1.844229E-2,-1.35430265E-2,-3.0799365E-2,-8.852841E-3,-2.6711626E-2,-2.230206E-2,-1.1868583E-2,-1.741307E-2,-8.764157E-3,-4.7031343E-3,-2.978986E-2,-2.144313E-2,-5.3048707E-3,-1.6532812E-2,-2.5079362E-3,-1.08814975E-2,-2.5464748E-3,1.7000869E-3,-1.8499177E-2,-5.1704547E-3,-1.2249268E-2,-7.0770276E-3,4.094341E-3,8.323036E-3,1.0198232E-2,1.474003E-2,-5.716313E-3,-9.886159E-4,5.3731413E-3,1.0463604E-3,5.877006E-3,1.2838594E-2,9.295265E-3,1.7315527E-2,1.2083306E-3,6.7789536E-3,8.909138E-3,1.2941161E-2,-1.685284E-2,1.4497738E-2,2.021314E-2,1.6861875E-2,1.7728128E-2,2.1055989E-2],"split_indices":[3,3,3,3,3,3,3,3,0,0,0,0,0,3,3,3,0,0,3,0,4,0,4,4,0,4,0,2,0,3,0,0,0,0,0,4,3,2,2,0,2,4,1,0,3,1,3,3,3,1,0,4,3,3,3,4,0,0,0,0,0,0,0,0,0,0,0,0,0,0,0,0,0,0,0,0,0,0,0,0,0,0,0,0,0,0,0,0,0,0,0,0,0,0,0,0,0,0,0,0,0,0,0,0,0,0,0,0,0],"split_type":[0,0,0,0,0,0,0,0,0,0,0,0,0,0,0,0,0,0,0,0,0,0,0,0,0,0,0,0,0,0,0,0,0,0,0,0,0,0,0,0,0,0,0,0,0,0,0,0,0,0,0,0,0,0,0,0,0,0,0,0,0,0,0,0,0,0,0,0,0,0,0,0,0,0,0,0,0,0,0,0,0,0,0,0,0,0,0,0,0,0,0,0,0,0,0,0,0,0,0,0,0,0,0,0,0,0,0,0,0],"sum_hessian":[1.2215E4,5.598E3,6.617E3,2.467E3,3.131E3,3.323E3,3.294E3,8.54E2,1.613E3,1.382E3,1.749E3,1.685E3,1.638E3,1.856E3,1.438E3,2.79E2,5.75E2,1.133E3,4.8E2,1.022E3,3.6E2,1.313E3,4.36E2,4.3E2,1.255E3,4.52E2,1.186E3,9.5E2,9.06E2,8.57E2,5.81E2,9.4E1,1.85E2,3.87E2,1.88E2,6.64E2,4.69E2,2.7E2,2.1E2,6.51E2,3.71E2,1.23E2,2.37E2,8.61E2,4.52E2,4.8E1,3.88E2,3.83E2,4.7E1,4.18E2,8.37E2,3.11E2,1.41E2,4.2E2,7.66E2,2.94E2,6.56E2,2.4E2,6.66E2,4.23E2,4.34E2,2.25E2,1.62E2,2.52E2,4.12E2,2.72E2,1.97E2,2.69E2,1E0,9.9E1,1.11E2,3.28E2,3.23E2,2.52E2,1.19E2,1.2E1,1.11E2,6E0,2.31E2,4.4E2,4.21E2,2.44E2,2.08E2,4.6E1,2E0,1.48E2,2.4E2,2.48E2,1.35E2,2.6E1,2.1E1,1.96E2,2.22E2,4.19E2,4.18E2,1.6E1,2.95E2,5E0,1.36E2,1.35E2,2.85E2,3.57E2,4.09E2,1E0,2.93E2,1.64E2,4.92E2,2.21E2,4.45E2],"tree_param":{"num_deleted":"0","num_feature":"6","num_nodes":"109","size_leaf_vector":"1"}},{"base_weights":[1.4117834E-3,-1.6505277E0,1.4336461E0,-2.5847845E0,-9.188152E-1,6.43656E-1,2.2048879E0,-3.1864755E0,-2.1819339E0,-1.3346646E0,-5.359014E-1,2.3800269E-1,1.023496E0,1.8342856E0,2.661852E0,-3.6578476E0,-2.9402797E0,-1.9465663E0,-2.7409205E0,-1.1626476E0,-1.7955543E0,-8.267392E-1,-3.5925534E-1,6.143355E-1,1.0967949E-1,1.3918306E0,8.828988E-1,1.649272E0,2.0380316E0,2.478668E0,1.4677659E-1,-3.4477634E0,-1.9928135E-1,-2.7034786E0,-1.716808E-1,-2.1951644E0,-1.5877033E0,-2.9570913E0,-2.370755E0,-1.4128679E0,-7.260488E-1,-2.2218432E0,-1.5858808E0,-1.4524186E0,-7.6414794E-1,-2.3635061E-1,-7.62036E-1,5.32896E-1,1.2277104E0,-3.0800736E-1,3.2079494E-1,1.2496915E0,1.7055527E0,4.8542774E-1,1.0984416E0,-1.2729272E0,1.6566398E0,1.1238313E-1,1.965359E0,1.182956E-1,1.3015418E-1,-1.9021645E-1,-1.6333412E-1,-1.4854065E-1,-1.1743363E-1,-1.3028087E-1,-1.035399E-1,-1.06632106E-1,-7.485025E-2,-1.6302525E-1,-1.4056431E-1,-1.3036111E-1,-1.0422919E-1,-5.5497516E-2,-8.476582E-2,-4.2791303E-2,-2.2815486E-2,-1.3567695E-1,-1.0449479E-1,-8.2932465E-2,-5.3844858E-2,-5.3468972E-2,-9.9789E-2,-2.2372143E-2,-4.3372672E-2,-2.0243745E-2,2.3317933E-3,-5.889381E-2,-3.0454928E-2,1.7636752E-2,3.783556E-2,4.9097773E-2,7.3675804E-2,-2.6716957E-2,-5.357656E-3,2.6568249E-2,5.196115E-3,4.443801E-2,6.557223E-2,8.087217E-2,9.950317E-2,5.961437E-3,3.3309896E-2,4.4063177E-2,6.450043E-2,-8.384289E-2,-1.1626649E-2,7.199295E-2,8.774828E-2,8.615654E-2,1.0400325E-1],"categories":[],"categories_nodes":[],"categories_segments":[],"categories_sizes":[],"default_left":[0,0,0,0,0,0,0,0,0,0,0,0,0,0,0,0,0,0,0,0,0,0,0,0,0,0,0,0,0,0,0,0,0,0,0,0,0,0,0,0,0,0,0,0,0,0,0,0,0,0,0,0,0,0,0,0,0,0,0,0,0,0,0,0,0,0,0,0,0,0,0,0,0,0,0,0,0,0,0,0,0,0,0,0,0,0,0,0,0,0,0,0,0,0,0,0,0,0,0,0,0,0,0,0,0,0,0,0,0,0,0],"id":1,"left_children":[1,3,5,7,9,11,13,15,17,19,21,23,25,27,29,31,33,35,37,39,41,43,45,47,49,51,53,55,57,59,-1,61,-1,63,-1,65,67,69,71,73,75,77,79,81,83,85,87,89,91,93,95,97,99,101,103,105,107,-1,109,-1,-1,-1,-1,-1,-1,-1,-1,-1,-1,-1,-1,-1,-1,-1,-1,-1,-1,-1,-1,-1,-1,-1,-1,-1,-1,-1,-1,-1,-1,-1,-1,-1,-1,-1,-1,-1,-1,-1,-1,-1,-1,-1,-1,-1,-1,-1,-1,-1,-1,-1,-1],"loss_changes":[2.8994893E4,3.8880361E3,3.9978535E3,5.9878516E2,5.0772046E2,4.9960303E2,5.5753516E2,1.0529492E2,1.9201611E2,1.1921216E2,8.519153E1,7.575142E1,8.551416E1,6.588574E1,6.717285E1,9.602539E0,6.805371E1,9.099121E1,2.835791E1,1.2100195E2,3.3480347E1,2.3483917E1,5.1155167E1,1.9276993E1,1.0344594E2,1.842566E1,1.0355829E2,2.295044E1,8.83667E0,6.4106445E0,0E0,1.3898926E0,0E0,3.5895508E1,0E0,2.6406494E1,1.8406128E1,2.9997559E0,5.933655E0,5.877942E1,1.3926926E1,3.022644E0,8.621582E0,9.520966E0,1.8358948E1,3.7980206E1,1.4673172E1,1.40073395E1,1.3318405E0,1.7853863E1,3.551928E1,5.989105E0,3.157959E-1,2.8319443E1,3.1605713E1,8.7081623E-1,1.806372E1,0E0,1.4587402E1,0E0,0E0,0E0,0E0,0E0,0E0,0E0,0E0,0E0,0E0,0E0,0E0,0E0,0E0,0E0,0E0,0E0,0E0,0E0,0E0,0E0,0E0,0E0,0E0,0E0,0E0,0E0,0E0,0E0,0E0,0E0,0E0,0E0,0E0,0E0,0E0,0E0,0E0,0E0,0E0,0E0,0E0,0E0,0E0,0E0,0E0,0E0,0E0,0E0,0E0,0E0,0E0],"parents":[2147483647,0,0,1,1,2,2,3,3,4,4,5,5,6,6,7,7,8,8,9,9,10,10,11,11,12,12,13,13,14,14,15,15,16,16,17,17,18,18,19,19,20,20,21,21,22,22,23,23,24,24,25,25,26,26,27,27,28,28,29,29,31,31,33,33,35,35,36,36,37,37,38,38,39,39,40,40,41,41,42,42,43,43,44,44,45,45,46,46,47,47,48,48,49,49,50,50,51,51,52,52,53,53,54,54,55,55,56,56,58,58],"right_children":[2,4,6,8,10,12,14,16,18,20,22,24,26,28,30,32,34,36,38,40,42,44,46,48,50,52,54,56,58,60,-1,62,-1,64,-1,66,68,70,72,74,76,78,80,82,84,86,88,90,92,94,96,98,100,102,104,106,108,-1,110,-1,-1,-1,-1,-1,-1,-1,-1,-1,-1,-1,-1,-1,-1,-1,-1,-1,-1,-1,-1,-1,-1,-1,-1,-1,-1,-1,-1,-1,-1,-1,-1,-1,-1,-1,-1,-1,-1,-1,-1,-1,-1,-1,-1,-1,-1,-1,-1,-1,-1,-1,-1],"split_conditions":[6.246E0,4.5675E0,7.8366666E0,3.6466668E0,5.4366665E0,7.012E0,8.683333E0,3.0233333E0,2.023E3,2.023E3,5.59E0,2.021E3,2.021E3,8.291333E0,9.2E0,2.023E3,2.023E3,2.022E3,4.224E0,2.022E3,4.71E0,4.1066666E0,2.023E3,7.894375E0,2.022E3,7.7294593E0,2.022E3,4.686E0,2.021E3,8.965E0,1.4677659E-1,2.021E3,-1.9928135E-1,2.022E3,-1.716808E-1,4.165E0,4.13E0,5.9146953E0,6.056731E0,2.021E3,6.2568455E0,3.8378572E0,5.334E0,5.9255943E0,2.021E3,2.022E3,5.69E0,6.6175E0,6.65E0,6.3750033E0,2.023E3,5.6066666E0,8.343333E0,7.27E0,7.3775E0,6.7005687E0,6.524428E0,1.1238313E-1,2.022E3,1.182956E-1,1.3015418E-1,-1.9021645E-1,-1.6333412E-1,-1.4854065E-1,-1.1743363E-1,-1.3028087E-1,-1.035399E-1,-1.06632106E-1,-7.485025E-2,-1.6302525E-1,-1.4056431E-1,-1.3036111E-1,-1.0422919E-1,-5.5497516E-2,-8.476582E-2,-4.2791303E-2,-2.2815486E-2,-1.3567695E-1,-1.0449479E-1,-8.2932465E-2,-5.3844858E-2,-5.3468972E-2,-9.9789E-2,-2.2372143E-2,-4.3372672E-2,-2.0243745E-2,2.3317933E-3,-5.889381E-2,-3.0454928E-2,1.7636752E-2,3.783556E-2,4.9097773E-2,7.3675804E-2,-2.6716957E-2,-5.357656E-3,2.6568249E-2,5.196115E-3,4.443801E-2,6.557223E-2,8.087217E-2,9.950317E-2,5.961437E-3,3.3309896E-2,4.4063177E-2,6.450043E-2,-8.384289E-2,-1.1626649E-2,7.199295E-2,8.774828E-2,8.615654E-2,1.0400325E-1],"split_indices":[3,3,3,3,3,3,3,3,0,0,4,0,0,3,3,0,0,0,3,0,4,4,0,4,0,4,0,4,0,3,0,0,0,0,0,4,4,2,2,0,2,4,3,2,0,0,3,3,3,1,0,4,4,3,3,1,2,0,0,0,0,0,0,0,0,0,0,0,0,0,0,0,0,0,0,0,0,0,0,0,0,0,0,0,0,0,0,0,0,0,0,0,0,0,0,0,0,0,0,0,0,0,0,0,0,0,0,0,0,0,0],"split_type":[0,0,0,0,0,0,0,0,0,0,0,0,0,0,0,0,0,0,0,0,0,0,0,0,0,0,0,0,0,0,0,0,0,0,0,0,0,0,0,0,0,0,0,0,0,0,0,0,0,0,0,0,0,0,0,0,0,0,0,0,0,0,0,0,0,0,0,0,0,0,0,0,0,0,0,0,0,0,0,0,0,0,0,0,0,0,0,0,0,0,0,0,0,0,0,0,0,0,0,0,0,0,0,0,0,0,0,0,0,0,0],"sum_hessian":[1.2253E4,5.69E3,6.563E3,2.498E3,3.192E3,3.243E3,3.32E3,9.99E2,1.499E3,1.529E3,1.663E3,1.569E3,1.674E3,1.836E3,1.484E3,3.38E2,6.61E2,1.058E3,4.41E2,1.116E3,4.13E2,6.27E2,1.036E3,3.98E2,1.171E3,4.6E2,1.214E3,9.67E2,8.69E2,8.95E2,5.89E2,2.13E2,1.25E2,4.51E2,2.1E2,6.22E2,4.36E2,2.74E2,1.67E2,7.08E2,4.08E2,1.33E2,2.8E2,5.5E1,5.72E2,7.95E2,2.41E2,3.53E2,4.5E1,3.93E2,7.78E2,3.2E2,1.4E2,4.28E2,7.86E2,2E0,9.65E2,2.16E2,6.53E2,4.8E2,4.15E2,6.5E1,1.48E2,2.53E2,1.98E2,1.4E2,4.82E2,5.9E1,3.77E2,8.2E1,1.92E2,8.7E1,8E1,3.44E2,3.64E2,2.74E2,1.34E2,2.4E1,1.09E2,2.43E2,3.7E1,3.4E1,2.1E1,1.42E2,4.3E2,4.98E2,2.97E2,6.3E1,1.78E2,1.97E2,1.56E2,2.5E1,2E1,1.84E2,2.09E2,3.94E2,3.84E2,4.9E1,2.71E2,1.12E2,2.8E1,1.42E2,2.86E2,3.71E2,4.15E2,1E0,1E0,3.06E2,6.59E2,2.15E2,4.38E2],"tree_param":{"num_deleted":"0","num_feature":"6","num_nodes":"111","size_leaf_vector":"1"}},{"base_weights":[6.2494953E-3,-1.5107235E0,1.4029213E0,-2.4034207E0,-7.976902E-1,6.5644747E-1,2.113942E0,-3.063778E0,-2.032038E0,-1.1925273E0,-4.2541045E-1,2.7000526E-1,9.864685E-1,1.7786686E0,2.5539153E0,-3.4826388E0,-2.8252053E0,-1.811879E0,-2.5800164E0,-1.6691681E0,-1.0254587E0,-3.0044988E-1,-7.879693E-1,6.352552E-1,1.4366193E-1,1.3264354E0,8.606026E-1,1.6083196E0,1.9719986E0,2.3808196E0,2.793363E0,-1.9371809E-1,-3.3183885E0,-2.6120598E0,-1.6261533E-1,-2.0518034E0,-1.4532111E0,-2.8149648E0,-2.2178273E0,-1.4822086E0,-1.9957992E0,-8.9813805E-1,-1.4268792E0,-4.8282346E-1,5.3871803E-2,-9.820484E-1,-4.7339737E-1,4.532201E-1,8.8809395E-1,-2.6075292E-1,3.4766313E-1,1.1862714E0,1.6200315E0,4.7280106E-1,1.0642979E0,1.3730114E0,1.7226607E0,2.155681E0,1.900352E0,1.1294212E-1,1.23176515E-1,1.3523951E-1,1.4739554E-1,-1.5685692E-1,-1.8036649E-1,-1.418662E-1,-1.14613436E-1,-1.1867201E-1,-9.5125206E-2,-8.434244E-2,-6.0228467E-2,-1.5397976E-1,-1.3425633E-1,-1.20480835E-1,-9.7670846E-2,-8.463928E-2,-4.4857956E-2,-1.027511E-1,-6.4531304E-2,-5.4876376E-2,-2.8578475E-2,-8.5306756E-2,-6.546094E-2,-2.6016347E-3,-4.505762E-2,-8.713848E-3,9.796732E-3,-7.627608E-2,-4.378815E-2,-2.4722343E-2,2.5135888E-2,1.3013365E-2,3.236736E-2,3.447279E-2,5.8818843E-2,-2.5873601E-2,-5.4260544E-3,2.693407E-2,7.565034E-3,3.4619477E-2,6.1271604E-2,4.4052463E-2,8.286484E-2,3.977933E-3,3.261285E-2,4.1894298E-2,6.1957587E-2,-8.174682E-2,6.935833E-2,9.782713E-2,8.221876E-2,5.278612E-2,1.082677E-1,8.330001E-2,1.0097261E-1],"categories":[],"categories_nodes":[],"categories_segments":[],"categories_sizes":[],"default_left":[0,0,0,0,0,0,0,0,0,0,0,0,0,0,0,0,0,0,0,0,0,0,0,0,0,0,0,0,0,0,0,0,0,0,0,0,0,0,0,0,0,0,0,0,0,0,0,0,0,0,0,0,0,0,0,0,0,0,0,0,0,0,0,0,0,0,0,0,0,0,0,0,0,0,0,0,0,0,0,0,0,0,0,0,0,0,0,0,0,0,0,0,0,0,0,0,0,0,0,0,0,0,0,0,0,0,0,0,0,0,0,0,0,0,0],"id":2,"left_children":[1,3,5,7,9,11,13,15,17,19,21,23,25,27,29,31,33,35,37,39,41,43,45,47,49,51,53,55,57,59,61,-1,63,65,-1,67,69,71,73,75,77,79,81,83,85,87,89,91,93,95,97,99,101,103,105,107,109,111,113,-1,-1,-1,-1,-1,-1,-1,-1,-1,-1,-1,-1,-1,-1,-1,-1,-1,-1,-1,-1,-1,-1,-1,-1,-1,-1,-1,-1,-1,-1,-1,-1,-1,-1,-1,-1,-1,-1,-1,-1,-1,-1,-1,-1,-1,-1,-1,-1,-1,-1,-1,-1,-1,-1,-1,-1],"loss_changes":[2.5913982E4,3.7300156E3,3.3784805E3,6.3214746E2,4.7882642E2,3.961095E2,4.764922E2,8.359375E1,1.9667773E2,1.2426587E2,7.587659E1,6.6037254E1,7.057483E1,5.7887207E1,5.170703E1,8.697754E0,4.621631E1,9.976587E1,3.4262695E1,2.2017944E1,5.872058E1,8.0864296E1,2.5787415E1,1.6534897E1,8.803684E1,1.6637573E1,9.634259E1,2.4298096E1,7.2736816E0,2.7490234E0,3.4179688E-2,0E0,1.4094238E0,2.2743164E1,0E0,2.9723145E1,2.5968506E1,1.5231934E0,5.029541E0,3.1005615E1,3.4450684E0,5.75849E1,6.9991455E0,1.4880841E2,1.3841426E1,1.3971252E1,3.6593208E0,7.922306E0,7.9503403E0,1.3934776E1,2.6512253E1,5.1278076E0,2.4778137E0,2.9869667E1,3.0751709E1,1.6276001E1,8.922119E0,2.1435547E-1,1.4219971E1,0E0,0E0,0E0,0E0,0E0,0E0,0E0,0E0,0E0,0E0,0E0,0E0,0E0,0E0,0E0,0E0,0E0,0E0,0E0,0E0,0E0,0E0,0E0,0E0,0E0,0E0,0E0,0E0,0E0,0E0,0E0,0E0,0E0,0E0,0E0,0E0,0E0,0E0,0E0,0E0,0E0,0E0,0E0,0E0,0E0,0E0,0E0,0E0,0E0,0E0,0E0,0E0,0E0,0E0,0E0,0E0],"parents":[2147483647,0,0,1,1,2,2,3,3,4,4,5,5,6,6,7,7,8,8,9,9,10,10,11,11,12,12,13,13,14,14,15,15,16,16,17,17,18,18,19,19,20,20,21,21,22,22,23,23,24,24,25,25,26,26,27,27,28,28,29,29,30,30,32,32,33,33,35,35,36,36,37,37,38,38,39,39,40,40,41,41,42,42,43,43,44,44,45,45,46,46,47,47,48,48,49,49,50,50,51,51,52,52,53,53,54,54,55,55,56,56,57,57,58,58],"right_children":[2,4,6,8,10,12,14,16,18,20,22,24,26,28,30,32,34,36,38,40,42,44,46,48,50,52,54,56,58,60,62,-1,64,66,-1,68,70,72,74,76,78,80,82,84,86,88,90,92,94,96,98,100,102,104,106,108,110,112,114,-1,-1,-1,-1,-1,-1,-1,-1,-1,-1,-1,-1,-1,-1,-1,-1,-1,-1,-1,-1,-1,-1,-1,-1,-1,-1,-1,-1,-1,-1,-1,-1,-1,-1,-1,-1,-1,-1,-1,-1,-1,-1,-1,-1,-1,-1,-1,-1,-1,-1,-1,-1,-1,-1,-1,-1],"split_conditions":[6.34E0,4.67E0,7.865E0,3.6233332E0,5.5342855E0,7.0425E0,8.751667E0,3.0233333E0,2.023E3,4.76E0,2.023E3,2.021E3,2.021E3,8.335E0,9.2E0,2.55E0,2.023E3,2.022E3,4.24E0,2.023E3,2.023E3,2.022E3,6.2680163E0,6.463992E0,2.022E3,7.7294593E0,2.022E3,6.541392E0,2.021E3,8.935E0,9.4925E0,-1.9371809E-1,2.023E3,2.022E3,-1.6261533E-1,4.015E0,4.15E0,5.9146953E0,6.0703993E0,2.022E3,4.71E0,2.022E3,4.945E0,2.021E3,5.83E0,4.72E0,7.996902E0,6.6175E0,6.81E0,6.3750033E0,2.023E3,5.2325E0,7.10375E0,7.27E0,7.3775E0,3.235E0,2.021E3,5.807778E0,2.022E3,1.1294212E-1,1.23176515E-1,1.3523951E-1,1.4739554E-1,-1.5685692E-1,-1.8036649E-1,-1.418662E-1,-1.14613436E-1,-1.1867201E-1,-9.5125206E-2,-8.434244E-2,-6.0228467E-2,-1.5397976E-1,-1.3425633E-1,-1.20480835E-1,-9.7670846E-2,-8.463928E-2,-4.4857956E-2,-1.027511E-1,-6.4531304E-2,-5.4876376E-2,-2.8578475E-2,-8.5306756E-2,-6.546094E-2,-2.6016347E-3,-4.505762E-2,-8.713848E-3,9.796732E-3,-7.627608E-2,-4.378815E-2,-2.4722343E-2,2.5135888E-2,1.3013365E-2,3.236736E-2,3.447279E-2,5.8818843E-2,-2.5873601E-2,-5.4260544E-3,2.693407E-2,7.565034E-3,3.4619477E-2,6.1271604E-2,4.4052463E-2,8.286484E-2,3.977933E-3,3.261285E-2,4.1894298E-2,6.1957587E-2,-8.174682E-2,6.935833E-2,9.782713E-2,8.221876E-2,5.278612E-2,1.082677E-1,8.330001E-2,1.0097261E-1],"split_indices":[3,3,3,3,3,3,3,3,0,4,0,0,0,3,3,3,0,0,3,0,0,0,1,2,0,4,0,2,0,3,3,0,0,0,0,3,3,2,2,0,4,0,3,0,3,4,2,3,3,1,0,4,3,3,3,4,0,4,0,0,0,0,0,0,0,0,0,0,0,0,0,0,0,0,0,0,0,0,0,0,0,0,0,0,0,0,0,0,0,0,0,0,0,0,0,0,0,0,0,0,0,0,0,0,0,0,0,0,0,0,0,0,0,0,0],"split_type":[0,0,0,0,0,0,0,0,0,0,0,0,0,0,0,0,0,0,0,0,0,0,0,0,0,0,0,0,0,0,0,0,0,0,0,0,0,0,0,0,0,0,0,0,0,0,0,0,0,0,0,0,0,0,0,0,0,0,0,0,0,0,0,0,0,0,0,0,0,0,0,0,0,0,0,0,0,0,0,0,0,0,0,0,0,0,0,0,0,0,0,0,0,0,0,0,0,0,0,0,0,0,0,0,0,0,0,0,0,0,0,0,0,0,0],"sum_hessian":[1.2229E4,5.862E3,6.367E3,2.602E3,3.26E3,3.107E3,3.26E3,9.34E2,1.668E3,1.581E3,1.679E3,1.432E3,1.675E3,1.853E3,1.407E3,3.34E2,6E2,1.193E3,4.75E2,4.08E2,1.173E3,1.25E3,4.29E2,3.67E2,1.065E3,4.5E2,1.225E3,9.9E2,8.63E2,8.23E2,5.84E2,9.2E1,2.42E2,4.05E2,1.95E2,7.12E2,4.81E2,2.84E2,1.91E2,2.63E2,1.45E2,8.93E2,2.8E2,8.25E2,4.25E2,2.64E2,1.65E2,2.15E2,1.52E2,3.57E2,7.08E2,3.08E2,1.42E2,4.23E2,8.02E2,3.28E2,6.62E2,2.34E2,6.29E2,3.44E2,4.79E2,3.83E2,2.01E2,1.56E2,8.6E1,2.33E2,1.72E2,2.21E2,4.91E2,2.45E2,2.36E2,8.6E1,1.98E2,1.06E2,8.5E1,1.92E2,7.1E1,1.32E2,1.3E1,5.53E2,3.4E2,7.9E1,2.01E2,4.07E2,4.18E2,1.63E2,2.62E2,4.1E1,2.23E2,1.62E2,3E0,1.09E2,1.06E2,9.2E1,6E1,1.32E2,2.25E2,3.58E2,3.5E2,2.4E1,2.84E2,8E0,1.34E2,1.33E2,2.9E2,3.52E2,4.5E2,1E0,3.27E2,1.6E2,5.02E2,3E0,2.31E2,2.17E2,4.12E2],"tree_param":{"num_deleted":"0","num_feature":"6","num_nodes":"115","size_leaf_vector":"1"}},{"base_weights":[9.051916E-3,-1.496045E0,1.2840849E0,-2.332275E0,-8.37537E-1,5.7120657E-1,2.0065753E0,-2.8740926E0,-1.9612111E0,-1.2268904E0,-5.3139263E-1,2.0623742E-1,9.36491E-1,1.6534331E0,2.3949E0,-3.3055265E0,-2.65439E0,-1.7520268E0,-2.457358E0,-1.66123E0,-1.0674213E0,-7.9093826E-1,-3.6632565E-1,5.7374495E-1,8.011086E-2,1.2554687E0,8.11424E-1,1.4879168E0,1.8345509E0,2.2067218E0,2.623861E0,-1.8390474E-1,-3.1524022E0,-2.4358537E0,-1.5378553E-1,-1.977231E0,-1.4285432E0,-2.7154922E0,-2.1890888E0,-1.4678254E0,-1.9958938E0,-9.4737065E-1,-1.4614892E0,-9.143925E-1,-5.018357E-1,-2.4692537E-1,-7.468823E-1,5.0845546E-1,1.1419342E0,-3.1239876E-1,2.8444478E-1,1.127834E0,1.5274912E0,4.4977185E-1,1.008745E0,1.2571694E0,1.6015855E0,1.01181306E-1,1.76323E0,1.0389002E-1,1.14396036E-1,1.2634958E-1,1.389635E-1,-1.4933044E-1,-1.707679E-1,-1.3225767E-1,-1.0749753E-1,-1.1306343E-1,-9.043751E-2,-8.253675E-2,-6.2380757E-2,-1.3606034E-1,-3.7172366E-2,-1.1951285E-1,-9.931824E-2,-8.558741E-2,-4.481929E-2,-1.21113755E-1,-9.39357E-2,-5.799365E-2,-3.0913165E-2,-2.7338935E-3,-7.428589E-2,-7.40996E-2,-4.2584594E-2,-1.3862078E-2,-2.9090274E-2,-2.0748643E-2,6.2068447E-4,-5.482886E-2,-2.9796133E-2,1.779062E-2,3.468204E-2,4.5976155E-2,6.758653E-2,-3.074248E-2,-9.6384855E-3,2.416854E-2,4.3140305E-3,4.9952637E-2,6.415676E-2,5.4595616E-2,7.8821436E-2,4.823958E-3,3.0369967E-2,4.028022E-2,5.836148E-2,-7.970315E-2,6.359445E-2,9.205373E-2,7.5757585E-2,7.716533E-2,9.349417E-2],"categories":[],"categories_nodes":[],"categories_segments":[],"categories_sizes":[],"default_left":[0,0,0,0,0,0,0,0,0,0,0,0,0,0,0,0,0,0,0,0,0,0,0,0,0,0,0,0,0,0,0,0,0,0,0,0,0,0,0,0,0,0,0,0,0,0,0,0,0,0,0,0,0,0,0,0,0,0,0,0,0,0,0,0,0,0,0,0,0,0,0,0,0,0,0,0,0,0,0,0,0,0,0,0,0,0,0,0,0,0,0,0,0,0,0,0,0,0,0,0,0,0,0,0,0,0,0,0,0,0,0,0,0],"id":3,"left_children":[1,3,5,7,9,11,13,15,17,19,21,23,25,27,29,31,33,35,37,39,41,43,45,47,49,51,53,55,57,59,61,-1,63,65,-1,67,69,71,73,75,77,79,81,83,85,87,89,91,93,95,97,99,101,103,105,107,109,-1,111,-1,-1,-1,-1,-1,-1,-1,-1,-1,-1,-1,-1,-1,-1,-1,-1,-1,-1,-1,-1,-1,-1,-1,-1,-1,-1,-1,-1,-1,-1,-1,-1,-1,-1,-1,-1,-1,-1,-1,-1,-1,-1,-1,-1,-1,-1,-1,-1,-1,-1,-1,-1,-1,-1],"loss_changes":[2.3398959E4,3.0773604E3,3.3986846E3,4.8954688E2,3.7243896E2,4.4295447E2,4.4556445E2,8.591797E1,1.4774121E2,9.360303E1,7.4855835E1,7.708452E1,6.524451E1,4.883252E1,6.138086E1,7.402832E0,5.3921387E1,7.250195E1,2.3971436E1,2.0889343E1,4.6396606E1,2.384668E1,4.8616592E1,1.5185501E1,9.9540634E1,1.4456543E1,8.4894714E1,2.1697266E1,7.4489746E0,4.2695312E0,3.484375E0,0E0,3.9379883E-1,2.0881836E1,0E0,2.4958008E1,1.5146484E1,4.1101074E-1,4.1018066E0,3.1500427E1,2.0443726E0,5.362323E1,7.8946533E0,1.5678131E1,3.5386124E0,3.569821E1,1.2860733E1,1.0579552E1,7.634773E-1,1.5258785E1,3.2125015E1,5.1380615E0,1.3908386E0,2.355339E1,2.3946167E1,1.4743988E1,9.671997E0,0E0,1.12109375E1,0E0,0E0,0E0,0E0,0E0,0E0,0E0,0E0,0E0,0E0,0E0,0E0,0E0,0E0,0E0,0E0,0E0,0E0,0E0,0E0,0E0,0E0,0E0,0E0,0E0,0E0,0E0,0E0,0E0,0E0,0E0,0E0,0E0,0E0,0E0,0E0,0E0,0E0,0E0,0E0,0E0,0E0,0E0,0E0,0E0,0E0,0E0,0E0,0E0,0E0,0E0,0E0,0E0,0E0],"parents":[2147483647,0,0,1,1,2,2,3,3,4,4,5,5,6,6,7,7,8,8,9,9,10,10,11,11,12,12,13,13,14,14,15,15,16,16,17,17,18,18,19,19,20,20,21,21,22,22,23,23,24,24,25,25,26,26,27,27,28,28,29,29,30,30,32,32,33,33,35,35,36,36,37,37,38,38,39,39,40,40,41,41,42,42,43,43,44,44,45,45,46,46,47,47,48,48,49,49,50,50,51,51,52,52,53,53,54,54,55,55,56,56,58,58],"right_children":[2,4,6,8,10,12,14,16,18,20,22,24,26,28,30,32,34,36,38,40,42,44,46,48,50,52,54,56,58,60,62,-1,64,66,-1,68,70,72,74,76,78,80,82,84,86,88,90,92,94,96,98,100,102,104,106,108,110,-1,112,-1,-1,-1,-1,-1,-1,-1,-1,-1,-1,-1,-1,-1,-1,-1,-1,-1,-1,-1,-1,-1,-1,-1,-1,-1,-1,-1,-1,-1,-1,-1,-1,-1,-1,-1,-1,-1,-1,-1,-1,-1,-1,-1,-1,-1,-1,-1,-1,-1,-1,-1,-1,-1,-1],"split_conditions":[6.308974E0,4.5675E0,7.865E0,3.6466668E0,5.3625E0,7.0425E0,8.6455555E0,3.0233333E0,2.023E3,4.71E0,5.59E0,2.021E3,2.021E3,8.291333E0,9.133333E0,2.55E0,2.023E3,2.022E3,4.127E0,2.023E3,2.023E3,6.2519174E0,2.023E3,7.894375E0,2.022E3,7.7455173E0,2.022E3,6.524428E0,2.021E3,8.846666E0,9.4445E0,-1.8390474E-1,2.023E3,2.022E3,-1.5378553E-1,4.5233335E0,4.9616666E0,7.2968507E0,6.056731E0,2.022E3,3.8378572E0,2.022E3,5.8726344E0,4.07875E0,2.021E3,2.022E3,5.69E0,6.6175E0,6.65E0,6.45E0,2.023E3,7.4483333E0,6.475296E0,7.27E0,7.3775E0,3.235E0,2.021E3,1.01181306E-1,2.022E3,1.0389002E-1,1.14396036E-1,1.2634958E-1,1.389635E-1,-1.4933044E-1,-1.707679E-1,-1.3225767E-1,-1.0749753E-1,-1.1306343E-1,-9.043751E-2,-8.253675E-2,-6.2380757E-2,-1.3606034E-1,-3.7172366E-2,-1.1951285E-1,-9.931824E-2,-8.558741E-2,-4.481929E-2,-1.21113755E-1,-9.39357E-2,-5.799365E-2,-3.0913165E-2,-2.7338935E-3,-7.428589E-2,-7.40996E-2,-4.2584594E-2,-1.3862078E-2,-2.9090274E-2,-2.0748643E-2,6.2068447E-4,-5.482886E-2,-2.9796133E-2,1.779062E-2,3.468204E-2,4.5976155E-2,6.758653E-2,-3.074248E-2,-9.6384855E-3,2.416854E-2,4.3140305E-3,4.9952637E-2,6.415676E-2,5.4595616E-2,7.8821436E-2,4.823958E-3,3.0369967E-2,4.028022E-2,5.836148E-2,-7.970315E-2,6.359445E-2,9.205373E-2,7.5757585E-2,7.716533E-2,9.349417E-2],"split_indices":[1,3,3,3,3,3,3,3,0,4,4,0,0,3,3,3,0,0,3,0,0,1,0,4,0,4,0,2,0,3,3,0,0,0,0,4,4,2,2,0,4,0,1,4,0,0,3,3,3,3,0,3,1,3,3,4,0,0,0,0,0,0,0,0,0,0,0,0,0,0,0,0,0,0,0,0,0,0,0,0,0,0,0,0,0,0,0,0,0,0,0,0,0,0,0,0,0,0,0,0,0,0,0,0,0,0,0,0,0,0,0,0,0],"split_type":[0,0,0,0,0,0,0,0,0,0,0,0,0,0,0,0,0,0,0,0,0,0,0,0,0,0,0,0,0,0,0,0,0,0,0,0,0,0,0,0,0,0,0,0,0,0,0,0,0,0,0,0,0,0,0,0,0,0,0,0,0,0,0,0,0,0,0,0,0,0,0,0,0,0,0,0,0,0,0,0,0,0,0,0,0,0,0,0,0,0,0,0,0,0,0,0,0,0,0,0,0,0,0,0,0,0,0,0,0,0,0,0,0],"sum_hessian":[1.2191E4,5.591E3,6.6E3,2.462E3,3.129E3,3.323E3,3.277E3,9.98E2,1.464E3,1.376E3,1.753E3,1.663E3,1.66E3,1.719E3,1.558E3,3.32E2,6.66E2,1.033E3,4.31E2,3.67E2,1.009E3,6.8E2,1.073E3,4.24E2,1.239E3,4.65E2,1.195E3,9.03E2,8.16E2,8.61E2,6.97E2,9E1,2.42E2,4.43E2,2.23E2,6.06E2,4.27E2,2.15E2,2.16E2,2.36E2,1.31E2,7.76E2,2.33E2,4.75E2,2.05E2,8.18E2,2.55E2,3.82E2,4.2E1,4.24E2,8.15E2,3.2E2,1.45E2,4.23E2,7.72E2,3.02E2,6.01E2,2.16E2,6E2,3.43E2,5.18E2,4.4E2,2.57E2,1.56E2,8.6E1,2.51E2,1.92E2,2.21E2,3.85E2,1.88E2,2.39E2,2.14E2,1E0,1.03E2,1.13E2,1.64E2,7.2E1,2.4E1,1.07E2,4.7E2,3.06E2,4E0,2.29E2,4.5E1,4.3E2,5.5E1,1.5E2,4.96E2,3.22E2,7.5E1,1.8E2,2.11E2,1.71E2,2.3E1,1.9E1,1.19E2,3.05E2,4.06E2,4.09E2,1.79E2,1.41E2,1.7E1,1.28E2,1.31E2,2.92E2,3.41E2,4.31E2,1E0,3.01E2,1.54E2,4.47E2,2.01E2,3.99E2],"tree_param":{"num_deleted":"0","num_feature":"6","num_nodes":"113","size_leaf_vector":"1"}},{"base_weights":[4.2045373E-3,-1.48323E0,1.1666307E0,-2.3095803E0,-9.127085E-1,4.3683064E-1,1.8422327E0,-2.8335338E0,-2.0004065E0,-1.2986892E0,-5.729063E-1,9.975985E-2,7.675197E-1,1.4581652E0,2.2101634E0,-2.6328773E0,-3.216314E0,-1.7962042E0,-2.4548793E0,-1.6587185E0,-1.1226242E0,-4.4934627E-1,-9.257538E-1,4.5051017E-1,-2.5842909E-2,1.1034108E0,6.4514774E-1,1.2826595E0,1.5971649E0,2.0270178E0,2.4793143E0,-2.950819E0,-2.4153728E0,-1.8950538E-1,-1.5549222E-1,-2.017341E0,-1.50057E0,-2.6012225E0,-2.1511657E0,-2.4806871E0,-1.5766745E0,-1.0054862E0,-1.5134704E0,-6.3301706E-1,-1.2723452E-1,-1.1459881E0,-6.7643625E-1,3.6270934E-1,9.020724E-1,-3.502602E-1,1.5019514E-1,8.7186295E-1,1.2775223E0,3.068231E-1,8.166607E-1,1.5410607E0,1.1857185E0,1.3577029E0,1.6577607E0,1.9097842E0,1.0746857E-1,1.1822355E-1,1.3010211E-1,-1.567899E-1,-1.3216704E-1,-1.311528E-1,-1.0578891E-1,-1.1354804E-1,-9.18618E-2,-9.9624686E-2,-7.001986E-2,-1.3026749E-1,-3.624306E-2,-1.14370726E-1,-9.457893E-2,-1.2628466E-1,-5.2685637E-2,-7.1941674E-2,-9.199202E-2,-6.1057072E-2,-3.3005107E-2,-8.431949E-2,-6.299706E-2,-1.3564241E-2,-4.943149E-2,-1.427749E-2,5.288371E-3,-6.9697864E-2,-4.8308562E-2,-1.1300212E-1,-3.2491602E-2,-6.5941934E-4,2.1821706E-2,3.8557276E-2,6.030152E-2,-2.8104424E-2,-1.001132E-2,1.8368308E-2,-3.0104348E-3,1.968278E-2,4.5803398E-2,5.6426402E-2,7.036868E-2,2.2992126E-3,2.616036E-2,3.0894592E-2,4.9131554E-2,7.01419E-2,8.347977E-2,4.2005014E-2,6.820908E-2,6.9568686E-2,-3.200043E-2,9.2556514E-2,7.957167E-2,1.03159085E-1,9.25608E-2],"categories":[],"categories_nodes":[],"categories_segments":[],"categories_sizes":[],"default_left":[0,0,0,0,0,0,0,0,0,0,0,0,0,0,0,0,0,0,0,0,0,0,0,0,0,0,0,0,0,0,0,0,0,0,0,0,0,0,0,0,0,0,0,0,0,0,0,0,0,0,0,0,0,0,0,0,0,0,0,0,0,0,0,0,0,0,0,0,0,0,0,0,0,0,0,0,0,0,0,0,0,0,0,0,0,0,0,0,0,0,0,0,0,0,0,0,0,0,0,0,0,0,0,0,0,0,0,0,0,0,0,0,0,0,0,0,0],"id":4,"left_children":[1,3,5,7,9,11,13,15,17,19,21,23,25,27,29,31,33,35,37,39,41,43,45,47,49,51,53,55,57,59,61,63,65,-1,-1,67,69,71,73,75,77,79,81,83,85,87,89,91,93,95,97,99,101,103,105,107,109,111,113,115,-1,-1,-1,-1,-1,-1,-1,-1,-1,-1,-1,-1,-1,-1,-1,-1,-1,-1,-1,-1,-1,-1,-1,-1,-1,-1,-1,-1,-1,-1,-1,-1,-1,-1,-1,-1,-1,-1,-1,-1,-1,-1,-1,-1,-1,-1,-1,-1,-1,-1,-1,-1,-1,-1,-1,-1,-1],"loss_changes":[2.0976629E4,2.5069521E3,3.3568955E3,3.4634277E2,4.1240088E2,3.649734E2,4.964502E2,5.3284668E1,1.227334E2,9.1572754E1,7.269763E1,7.1513245E1,6.723242E1,4.022827E1,8.390137E1,2.9731445E1,4.830078E0,5.9013916E1,1.3160889E1,2.8593628E1,4.3940674E1,7.351761E1,2.3055023E1,1.664196E1,6.835593E1,1.6624878E1,7.0194305E1,1.7486084E1,1.17229E1,1.1372559E1,4.080078E0,3.768921E0,1.44852295E1,0E0,0E0,2.049414E1,1.7413452E1,2.7990723E-1,7.3083496E-1,3.5980225E-2,1.3349976E1,5.632306E1,7.8269653E0,1.01612E2,1.6740358E1,8.864075E0,7.210251E0,9.982422E0,1.815918E0,1.3267429E1,3.548036E1,3.6981049E0,3.229126E0,2.3116913E1,2.5949646E1,1.3354797E0,3.3703186E1,1.4343414E1,6.8530273E0,1.2119141E0,0E0,0E0,0E0,0E0,0E0,0E0,0E0,0E0,0E0,0E0,0E0,0E0,0E0,0E0,0E0,0E0,0E0,0E0,0E0,0E0,0E0,0E0,0E0,0E0,0E0,0E0,0E0,0E0,0E0,0E0,0E0,0E0,0E0,0E0,0E0,0E0,0E0,0E0,0E0,0E0,0E0,0E0,0E0,0E0,0E0,0E0,0E0,0E0,0E0,0E0,0E0,0E0,0E0,0E0,0E0,0E0,0E0],"parents":[2147483647,0,0,1,1,2,2,3,3,4,4,5,5,6,6,7,7,8,8,9,9,10,10,11,11,12,12,13,13,14,14,15,15,16,16,17,17,18,18,19,19,20,20,21,21,22,22,23,23,24,24,25,25,26,26,27,27,28,28,29,29,30,30,31,31,32,32,35,35,36,36,37,37,38,38,39,39,40,40,41,41,42,42,43,43,44,44,45,45,46,46,47,47,48,48,49,49,50,50,51,51,52,52,53,53,54,54,55,55,56,56,57,57,58,58,59,59],"right_children":[2,4,6,8,10,12,14,16,18,20,22,24,26,28,30,32,34,36,38,40,42,44,46,48,50,52,54,56,58,60,62,64,66,-1,-1,68,70,72,74,76,78,80,82,84,86,88,90,92,94,96,98,100,102,104,106,108,110,112,114,116,-1,-1,-1,-1,-1,-1,-1,-1,-1,-1,-1,-1,-1,-1,-1,-1,-1,-1,-1,-1,-1,-1,-1,-1,-1,-1,-1,-1,-1,-1,-1,-1,-1,-1,-1,-1,-1,-1,-1,-1,-1,-1,-1,-1,-1,-1,-1,-1,-1,-1,-1,-1,-1,-1,-1,-1,-1],"split_conditions":[6.105E0,4.423333E0,7.725E0,3.505E0,5.2633333E0,6.430538E0,8.51E0,2.023E3,2.023E3,4.780476E0,2.023E3,2.021E3,2.021E3,8.093333E0,9.106667E0,3.0233333E0,2.55E0,2.022E3,4.127E0,3.65E0,2.023E3,2.022E3,5.71E0,7.6896553E0,2.022E3,6.490129E0,2.022E3,2.021E3,6.493252E0,8.826667E0,9.361667E0,2.022E3,2.022E3,-1.8950538E-1,-1.5549222E-1,5.996918E0,4.13E0,7.513401E0,6.1007705E0,6.1456103E0,2.023E3,2.022E3,4.945E0,2.021E3,6.2011113E0,6.133219E0,4.01E0,5.144E0,8.292857E0,6.45E0,2.023E3,6.983E0,7.7182355E0,7.27E0,7.23E0,6.6107635E0,2.022E3,4E0,2.021E3,2.021E3,1.0746857E-1,1.1822355E-1,1.3010211E-1,-1.567899E-1,-1.3216704E-1,-1.311528E-1,-1.0578891E-1,-1.1354804E-1,-9.18618E-2,-9.9624686E-2,-7.001986E-2,-1.3026749E-1,-3.624306E-2,-1.14370726E-1,-9.457893E-2,-1.2628466E-1,-5.2685637E-2,-7.1941674E-2,-9.199202E-2,-6.1057072E-2,-3.3005107E-2,-8.431949E-2,-6.299706E-2,-1.3564241E-2,-4.943149E-2,-1.427749E-2,5.288371E-3,-6.9697864E-2,-4.8308562E-2,-1.1300212E-1,-3.2491602E-2,-6.5941934E-4,2.1821706E-2,3.8557276E-2,6.030152E-2,-2.8104424E-2,-1.001132E-2,1.8368308E-2,-3.0104348E-3,1.968278E-2,4.5803398E-2,5.6426402E-2,7.036868E-2,2.2992126E-3,2.616036E-2,3.0894592E-2,4.9131554E-2,7.01419E-2,8.347977E-2,4.2005014E-2,6.820908E-2,6.9568686E-2,-3.200043E-2,9.2556514E-2,7.957167E-2,1.03159085E-1,9.25608E-2],"split_indices":[3,3,3,3,3,1,3,0,0,4,0,0,0,3,3,3,3,0,3,4,0,0,3,4,0,2,0,0,2,3,3,0,0,0,0,2,4,2,2,1,0,0,3,0,4,2,4,4,4,3,0,3,4,3,3,2,0,5,0,0,0,0,0,0,0,0,0,0,0,0,0,0,0,0,0,0,0,0,0,0,0,0,0,0,0,0,0,0,0,0,0,0,0,0,0,0,0,0,0,0,0,0,0,0,0,0,0,0,0,0,0,0,0,0,0,0,0],"split_type":[0,0,0,0,0,0,0,0,0,0,0,0,0,0,0,0,0,0,0,0,0,0,0,0,0,0,0,0,0,0,0,0,0,0,0,0,0,0,0,0,0,0,0,0,0,0,0,0,0,0,0,0,0,0,0,0,0,0,0,0,0,0,0,0,0,0,0,0,0,0,0,0,0,0,0,0,0,0,0,0,0,0,0,0,0,0,0,0,0,0,0,0,0,0,0,0,0,0,0,0,0,0,0,0,0,0,0,0,0,0,0,0,0,0,0,0,0],"sum_hessian":[1.213E4,5.321E3,6.809E3,2.172E3,3.149E3,3.274E3,3.535E3,8.03E2,1.369E3,1.473E3,1.676E3,1.622E3,1.652E3,1.732E3,1.803E3,5.32E2,2.71E2,9.48E2,4.21E2,4.81E2,9.92E2,1.243E3,4.33E2,4.27E2,1.195E3,4.39E2,1.213E3,7.7E2,9.62E2,1.078E3,7.25E2,2.11E2,3.21E2,3.7E1,2.34E2,5.39E2,4.09E2,2.79E2,1.42E2,4.1E1,4.4E2,7.66E2,2.26E2,7.91E2,4.52E2,2.28E2,2.05E2,3.59E2,6.8E1,4.2E2,7.75E2,1.91E2,2.48E2,4.09E2,8.04E2,2.06E2,5.64E2,1.99E2,7.63E2,5.59E2,5.19E2,3.85E2,3.4E2,1.26E2,8.5E1,1.85E2,1.36E2,2.19E2,3.2E2,6.6E1,3.43E2,2.78E2,1E0,8.8E1,5.4E1,3.9E1,2E0,2.93E2,1.47E2,4.7E2,2.96E2,1.31E2,9.5E1,3.93E2,3.98E2,2.69E2,1.83E2,9.3E1,1.35E2,2E0,2.03E2,5.9E1,3E2,5E1,1.8E1,1.73E2,2.47E2,3.81E2,3.94E2,1.7E1,1.74E2,1.2E2,1.28E2,1.86E2,2.23E2,3.68E2,4.36E2,1.05E2,1.01E2,1.94E2,3.7E2,1.96E2,3E0,1.88E2,5.75E2,1.45E2,4.14E2],"tree_param":{"num_deleted":"0","num_feature":"6","num_nodes":"117","size_leaf_vector":"1"}},{"base_weights":[-8.943725E-4,-1.2956779E0,1.2182696E0,-2.085631E0,-6.779825E-1,5.707773E-1,1.8013287E0,-2.5714004E0,-1.7289609E0,-1.0079167E0,-3.5118914E-1,2.7441126E-1,8.524458E-1,1.5070273E0,2.1802146E0,-3.0339663E0,-2.4012637E0,-1.5473328E0,-2.1746337E0,-1.4309499E0,-8.752561E-1,-5.7691497E-1,-1.7407696E-1,5.8636016E-1,1.7074744E-1,1.1553472E0,7.4026024E-1,1.3502724E0,1.6703873E0,2.034266E0,2.3967505E0,-2.8478398E0,-1.6580157E-1,-2.2137294E0,-2.7865322E0,-1.7518507E0,-1.2414693E0,-2.3789828E0,-1.9032646E0,-1.2618654E0,-1.7646149E0,-7.6940334E-1,-1.2188239E0,-7.095495E-1,-3.3281177E-1,1.6338545E-1,-2.9525337E-1,4.3575734E-1,8.345299E-1,-1.8397881E-1,3.4330642E-1,9.802843E-1,1.3607424E0,4.1096327E-1,9.2334384E-1,-7.94158E-2,1.3549978E0,9.241986E-2,1.602497E0,9.761384E-2,1.06541894E-1,1.15952216E-1,1.2658155E-1,-1.5852986E-1,-1.3421926E-1,-1.2110317E-1,-9.582233E-2,-1.443398E-1,-1.2416228E-1,-1.0280087E-1,-8.089411E-2,-7.2880566E-2,-5.2484196E-2,-1.3275157E-1,-1.1247982E-1,-1.01917826E-1,-8.627687E-2,-7.4440435E-2,-3.4934815E-2,-9.781674E-2,-7.245832E-2,-4.703131E-2,-2.4174388E-2,-6.558688E-2,-4.8834454E-2,-2.9590666E-2,-5.0594684E-2,3.0074222E-4,-2.2730447E-2,-9.265343E-4,1.8775923E-2,-3.1951465E-2,-8.002472E-3,1.7428184E-2,3.7358385E-2,3.152587E-2,5.035586E-2,-1.7705211E-2,-2.5748836E-3,5.6772693E-3,2.341525E-2,2.6012743E-2,5.1243573E-2,6.452262E-2,8.09862E-2,1.1131773E-2,3.3333287E-2,4.037155E-2,5.4953516E-2,5.8755364E-2,7.221135E-2,7.076817E-2,8.4791206E-2],"categories":[],"categories_nodes":[],"categories_segments":[],"categories_sizes":[],"default_left":[0,0,0,0,0,0,0,0,0,0,0,0,0,0,0,0,0,0,0,0,0,0,0,0,0,0,0,0,0,0,0,0,0,0,0,0,0,0,0,0,0,0,0,0,0,0,0,0,0,0,0,0,0,0,0,0,0,0,0,0,0,0,0,0,0,0,0,0,0,0,0,0,0,0,0,0,0,0,0,0,0,0,0,0,0,0,0,0,0,0,0,0,0,0,0,0,0,0,0,0,0,0,0,0,0,0,0,0,0,0,0,0,0],"id":5,"left_children":[1,3,5,7,9,11,13,15,17,19,21,23,25,27,29,31,33,35,37,39,41,43,45,47,49,51,53,55,57,59,61,63,-1,65,67,69,71,73,75,77,79,81,83,85,87,89,91,93,95,97,99,101,103,105,107,-1,109,-1,111,-1,-1,-1,-1,-1,-1,-1,-1,-1,-1,-1,-1,-1,-1,-1,-1,-1,-1,-1,-1,-1,-1,-1,-1,-1,-1,-1,-1,-1,-1,-1,-1,-1,-1,-1,-1,-1,-1,-1,-1,-1,-1,-1,-1,-1,-1,-1,-1,-1,-1,-1,-1,-1,-1],"loss_changes":[1.9312021E4,2.8935947E3,2.3777666E3,4.4654883E2,3.587954E2,2.4911194E2,3.6635938E2,7.928369E1,1.18379395E2,9.173816E1,6.686406E1,4.7016075E1,5.116992E1,4.560498E1,4.0854492E1,5.8862305E0,5.2282227E1,6.4883545E1,1.9483887E1,2.000177E1,4.5030945E1,2.3592972E1,3.8487175E1,1.3203499E1,6.7089424E1,1.3480408E1,6.7144104E1,1.546875E1,8.047363E0,2.7363281E0,1.7675781E-1,1.1433105E0,0E0,2.9360107E1,7.681885E-1,2.275293E1,1.6419006E1,2.706421E0,1.0686035E0,3.2828766E1,5.0270386E0,4.698291E1,5.3781433E0,1.6345245E1,1.0773714E1,9.615969E0,3.2061783E1,5.9304543E0,4.153549E0,8.073054E0,2.111332E1,4.1024017E0,1.3139343E0,1.921025E1,1.3757874E1,0E0,1.3680176E1,0E0,9.248779E0,0E0,0E0,0E0,0E0,0E0,0E0,0E0,0E0,0E0,0E0,0E0,0E0,0E0,0E0,0E0,0E0,0E0,0E0,0E0,0E0,0E0,0E0,0E0,0E0,0E0,0E0,0E0,0E0,0E0,0E0,0E0,0E0,0E0,0E0,0E0,0E0,0E0,0E0,0E0,0E0,0E0,0E0,0E0,0E0,0E0,0E0,0E0,0E0,0E0,0E0,0E0,0E0,0E0,0E0],"parents":[2147483647,0,0,1,1,2,2,3,3,4,4,5,5,6,6,7,7,8,8,9,9,10,10,11,11,12,12,13,13,14,14,15,15,16,16,17,17,18,18,19,19,20,20,21,21,22,22,23,23,24,24,25,25,26,26,27,27,28,28,29,29,30,30,31,31,33,33,34,34,35,35,36,36,37,37,38,38,39,39,40,40,41,41,42,42,43,43,44,44,45,45,46,46,47,47,48,48,49,49,50,50,51,51,52,52,53,53,54,54,56,56,58,58],"right_children":[2,4,6,8,10,12,14,16,18,20,22,24,26,28,30,32,34,36,38,40,42,44,46,48,50,52,54,56,58,60,62,64,-1,66,68,70,72,74,76,78,80,82,84,86,88,90,92,94,96,98,100,102,104,106,108,-1,110,-1,112,-1,-1,-1,-1,-1,-1,-1,-1,-1,-1,-1,-1,-1,-1,-1,-1,-1,-1,-1,-1,-1,-1,-1,-1,-1,-1,-1,-1,-1,-1,-1,-1,-1,-1,-1,-1,-1,-1,-1,-1,-1,-1,-1,-1,-1,-1,-1,-1,-1,-1,-1,-1,-1,-1],"split_conditions":[6.363333E0,4.6392307E0,7.8366666E0,3.7083333E0,5.5533333E0,7.0725E0,8.724E0,2.955E0,2.023E3,4.71E0,5.896E0,2.021E3,2.021E3,8.291333E0,9.2E0,2.023E3,2.023E3,2.022E3,4.224E0,2.023E3,2.023E3,6.272216E0,2.021E3,6.81E0,2.022E3,6.5542326E0,2.022E3,3.235E0,2.021E3,8.98E0,9.4925E0,2.021E3,-1.6580157E-1,2.022E3,5.8858256E0,4.394E0,4.15E0,5.9146953E0,6.0703993E0,2.022E3,5.065E0,2.022E3,5.334E0,2.023E3,2.021E3,6.2827144E0,2.022E3,7.425E0,6.476981E0,6.65E0,6.382422E0,5.300833E0,8.294167E0,7.5175E0,7.5175E0,-7.94158E-2,6.541392E0,9.241986E-2,2.022E3,9.761384E-2,1.06541894E-1,1.15952216E-1,1.2658155E-1,-1.5852986E-1,-1.3421926E-1,-1.2110317E-1,-9.582233E-2,-1.443398E-1,-1.2416228E-1,-1.0280087E-1,-8.089411E-2,-7.2880566E-2,-5.2484196E-2,-1.3275157E-1,-1.1247982E-1,-1.01917826E-1,-8.627687E-2,-7.4440435E-2,-3.4934815E-2,-9.781674E-2,-7.245832E-2,-4.703131E-2,-2.4174388E-2,-6.558688E-2,-4.8834454E-2,-2.9590666E-2,-5.0594684E-2,3.0074222E-4,-2.2730447E-2,-9.265343E-4,1.8775923E-2,-3.1951465E-2,-8.002472E-3,1.7428184E-2,3.7358385E-2,3.152587E-2,5.035586E-2,-1.7705211E-2,-2.5748836E-3,5.6772693E-3,2.341525E-2,2.6012743E-2,5.1243573E-2,6.452262E-2,8.09862E-2,1.1131773E-2,3.3333287E-2,4.037155E-2,5.4953516E-2,5.8755364E-2,7.221135E-2,7.076817E-2,8.4791206E-2],"split_indices":[3,3,3,3,3,3,3,3,0,4,4,0,0,3,3,0,0,0,3,0,0,1,0,3,0,2,0,4,0,3,3,0,0,0,1,4,3,2,2,0,3,0,3,0,0,1,0,4,2,3,1,4,4,3,3,0,2,0,0,0,0,0,0,0,0,0,0,0,0,0,0,0,0,0,0,0,0,0,0,0,0,0,0,0,0,0,0,0,0,0,0,0,0,0,0,0,0,0,0,0,0,0,0,0,0,0,0,0,0,0,0,0,0],"split_type":[0,0,0,0,0,0,0,0,0,0,0,0,0,0,0,0,0,0,0,0,0,0,0,0,0,0,0,0,0,0,0,0,0,0,0,0,0,0,0,0,0,0,0,0,0,0,0,0,0,0,0,0,0,0,0,0,0,0,0,0,0,0,0,0,0,0,0,0,0,0,0,0,0,0,0,0,0,0,0,0,0,0,0,0,0,0,0,0,0,0,0,0,0,0,0,0,0,0,0,0,0,0,0,0,0,0,0,0,0,0,0,0,0],"sum_hessian":[1.2232E4,5.932E3,6.3E3,2.602E3,3.33E3,2.986E3,3.314E3,1.099E3,1.503E3,1.656E3,1.674E3,1.456E3,1.53E3,1.868E3,1.446E3,2.91E2,8.08E2,1.071E3,4.32E2,3.93E2,1.263E3,7.35E2,9.39E2,3.62E2,1.094E3,4.11E2,1.119E3,9.58E2,9.1E2,8.7E2,5.76E2,1.82E2,1.09E2,5.48E2,2.6E2,6.39E2,4.32E2,2.42E2,1.9E2,2.64E2,1.29E2,9.68E2,2.95E2,4.75E2,2.6E2,2.48E2,6.91E2,2.27E2,1.35E2,3.58E2,7.36E2,2.25E2,1.86E2,4.01E2,7.18E2,1E0,9.57E2,2.44E2,6.66E2,4.82E2,3.88E2,3.77E2,1.99E2,5.5E1,1.27E2,3.18E2,2.3E2,1.89E2,7.1E1,1.91E2,4.48E2,2E2,2.32E2,7.1E1,1.71E2,1.02E2,8.8E1,1.87E2,7.7E1,7.7E1,5.2E1,6.04E2,3.64E2,2.1E2,8.5E1,3.44E2,1.31E2,6.9E1,1.91E2,1.34E2,1.14E2,1.94E2,4.97E2,1.79E2,4.8E1,6.4E1,7.1E1,1.56E2,2.02E2,2.6E2,4.76E2,2.1E1,2.04E2,1.51E2,3.5E1,2.32E2,1.69E2,4.36E2,2.82E2,3.22E2,6.35E2,2.27E2,4.39E2],"tree_param":{"num_deleted":"0","num_feature":"6","num_nodes":"113","size_leaf_vector":"1"}},{"base_weights":[4.282948E-3,-1.1936169E0,1.1839439E0,-1.8839726E0,-5.354668E-1,6.047796E-1,1.747732E0,-2.4192932E0,-1.5418991E0,-7.741501E-1,-2.0269556E-1,3.3552572E-1,9.2593694E-1,1.4812214E0,2.0899734E0,-2.8462102E0,-2.2339444E0,-1.3772782E0,-1.9575137E0,-6.437419E-1,-1.1454147E0,1.4105864E-1,-3.2433537E-1,6.414994E-1,2.2895731E-1,1.1833068E0,8.2642114E-1,1.3503706E0,1.6312639E0,1.9605451E0,1.1456487E-1,-2.6664586E0,-1.5657589E-1,-2.0626287E0,-2.5987191E0,-1.5904765E0,-1.0494403E0,-2.2187092E0,-1.7296776E0,-8.164213E-1,-3.4208828E-1,-1.5716794E0,-1.0259602E0,-1.8842837E-2,4.8620573E-1,-6.696966E-1,-1.5356137E-1,4.461447E-1,8.661733E-1,-9.369514E-2,3.99607E-1,1.0675895E0,1.3920935E0,5.375926E-1,9.79262E-1,1.5546751E0,1.2867754E0,1.0939513E0,1.6489679E0,9.317941E-2,1.0132319E-1,-1.4202856E-1,-1.20235376E-1,-1.1357762E-1,-8.930853E-2,-1.4056358E-1,-1.2328718E-1,-1.01020135E-1,-7.4303314E-2,-6.2588684E-2,-3.9213505E-2,-1.2258716E-1,-1.0272093E-1,-9.7816154E-2,-7.4278556E-2,-2.5588363E-2,-5.5572517E-2,-2.351372E-2,-6.375977E-3,-1.277812E-1,-7.3560975E-2,-6.113509E-2,-4.2058524E-2,-1.118319E-2,7.9246545E-3,1.6753158E-2,3.8359016E-2,-5.324594E-2,-2.9599382E-2,8.120336E-3,-2.3355253E-2,2.0581894E-2,5.207956E-2,3.5720136E-2,4.9961004E-2,-1.0236678E-2,4.8323525E-3,2.891816E-2,1.1015206E-2,4.755076E-2,5.892105E-2,6.514638E-2,8.1275634E-2,1.1245353E-2,3.177449E-2,4.184748E-2,5.6258697E-2,6.3513145E-2,7.981645E-2,5.0003555E-2,7.0569955E-2,7.470893E-2,-1.8867983E-2,9.072887E-2,7.936161E-2],"categories":[],"categories_nodes":[],"categories_segments":[],"categories_sizes":[],"default_left":[0,0,0,0,0,0,0,0,0,0,0,0,0,0,0,0,0,0,0,0,0,0,0,0,0,0,0,0,0,0,0,0,0,0,0,0,0,0,0,0,0,0,0,0,0,0,0,0,0,0,0,0,0,0,0,0,0,0,0,0,0,0,0,0,0,0,0,0,0,0,0,0,0,0,0,0,0,0,0,0,0,0,0,0,0,0,0,0,0,0,0,0,0,0,0,0,0,0,0,0,0,0,0,0,0,0,0,0,0,0,0,0,0,0,0],"id":6,"left_children":[1,3,5,7,9,11,13,15,17,19,21,23,25,27,29,31,33,35,37,39,41,43,45,47,49,51,53,55,57,59,-1,61,-1,63,65,67,69,71,73,75,77,79,81,83,85,87,89,91,93,95,97,99,101,103,105,107,109,111,113,-1,-1,-1,-1,-1,-1,-1,-1,-1,-1,-1,-1,-1,-1,-1,-1,-1,-1,-1,-1,-1,-1,-1,-1,-1,-1,-1,-1,-1,-1,-1,-1,-1,-1,-1,-1,-1,-1,-1,-1,-1,-1,-1,-1,-1,-1,-1,-1,-1,-1,-1,-1,-1,-1,-1,-1],"loss_changes":[1.7316318E4,2.7614854E3,2.0149141E3,5.39584E2,2.4717859E2,2.6317212E2,2.822119E2,8.503516E1,1.2134766E2,8.704077E1,5.4487823E1,5.3948334E1,3.459778E1,3.239087E1,3.112793E1,9.394287E0,4.5257812E1,8.9333496E1,2.6631348E1,6.972882E1,2.2319519E1,1.882879E1,5.663469E1,1.8398956E1,6.787202E1,7.8154907E0,4.383905E1,1.0303711E1,5.958252E0,1.5861816E0,0E0,3.1500244E0,0E0,2.8056396E1,2.7563477E-1,3.232495E1,2.6703125E1,3.960083E0,1.2474304E1,7.6190186E1,1.3444859E1,6.2236786E0,1.2423187E1,8.534823E0,4.3294086E0,9.136124E0,6.397588E1,4.3175926E0,3.2842865E0,9.044558E0,2.57061E1,2.1351624E0,6.710205E-1,1.0570946E1,1.2680176E1,5.784912E-1,2.4599976E1,1.7640747E1,5.1765137E0,0E0,0E0,0E0,0E0,0E0,0E0,0E0,0E0,0E0,0E0,0E0,0E0,0E0,0E0,0E0,0E0,0E0,0E0,0E0,0E0,0E0,0E0,0E0,0E0,0E0,0E0,0E0,0E0,0E0,0E0,0E0,0E0,0E0,0E0,0E0,0E0,0E0,0E0,0E0,0E0,0E0,0E0,0E0,0E0,0E0,0E0,0E0,0E0,0E0,0E0,0E0,0E0,0E0,0E0,0E0,0E0],"parents":[2147483647,0,0,1,1,2,2,3,3,4,4,5,5,6,6,7,7,8,8,9,9,10,10,11,11,12,12,13,13,14,14,15,15,16,16,17,17,18,18,19,19,20,20,21,21,22,22,23,23,24,24,25,25,26,26,27,27,28,28,29,29,31,31,33,33,34,34,35,35,36,36,37,37,38,38,39,39,40,40,41,41,42,42,43,43,44,44,45,45,46,46,47,47,48,48,49,49,50,50,51,51,52,52,53,53,54,54,55,55,56,56,57,57,58,58],"right_children":[2,4,6,8,10,12,14,16,18,20,22,24,26,28,30,32,34,36,38,40,42,44,46,48,50,52,54,56,58,60,-1,62,-1,64,66,68,70,72,74,76,78,80,82,84,86,88,90,92,94,96,98,100,102,104,106,108,110,112,114,-1,-1,-1,-1,-1,-1,-1,-1,-1,-1,-1,-1,-1,-1,-1,-1,-1,-1,-1,-1,-1,-1,-1,-1,-1,-1,-1,-1,-1,-1,-1,-1,-1,-1,-1,-1,-1,-1,-1,-1,-1,-1,-1,-1,-1,-1,-1,-1,-1,-1,-1,-1,-1,-1,-1,-1],"split_conditions":[6.349678E0,4.85E0,7.9566665E0,3.7366667E0,5.81E0,7.23E0,8.79E0,3.0233333E0,2.023E3,2.023E3,2.021E3,2.021E3,2.021E3,8.374444E0,9.234E0,2.023E3,2.023E3,2.022E3,4.24E0,2.022E3,4.6225E0,6.7746153E0,2.022E3,6.420697E0,2.022E3,7.7455173E0,2.022E3,2.021E3,6.09E0,8.965E0,1.1456487E-1,2.022E3,-1.5657589E-1,2.022E3,3.3433332E0,4.165E0,4.37E0,5.970306E0,6.056731E0,2.021E3,5.455E0,3.4825E0,5.3625E0,6.2904453E0,7.6496153E0,5.8825E0,2.023E3,8.259512E0,6.4714956E0,6.953E0,2.023E3,7.55E0,8.343333E0,6.3867464E0,6.519207E0,6.4255953E0,2.022E3,6.24266E0,2.021E3,9.317941E-2,1.0132319E-1,-1.4202856E-1,-1.20235376E-1,-1.1357762E-1,-8.930853E-2,-1.4056358E-1,-1.2328718E-1,-1.01020135E-1,-7.4303314E-2,-6.2588684E-2,-3.9213505E-2,-1.2258716E-1,-1.0272093E-1,-9.7816154E-2,-7.4278556E-2,-2.5588363E-2,-5.5572517E-2,-2.351372E-2,-6.375977E-3,-1.277812E-1,-7.3560975E-2,-6.113509E-2,-4.2058524E-2,-1.118319E-2,7.9246545E-3,1.6753158E-2,3.8359016E-2,-5.324594E-2,-2.9599382E-2,8.120336E-3,-2.3355253E-2,2.0581894E-2,5.207956E-2,3.5720136E-2,4.9961004E-2,-1.0236678E-2,4.8323525E-3,2.891816E-2,1.1015206E-2,4.755076E-2,5.892105E-2,6.514638E-2,8.1275634E-2,1.1245353E-2,3.177449E-2,4.184748E-2,5.6258697E-2,6.3513145E-2,7.981645E-2,5.0003555E-2,7.0569955E-2,7.470893E-2,-1.8867983E-2,9.072887E-2,7.936161E-2],"split_indices":[1,3,3,3,3,3,3,3,0,0,0,0,0,3,3,0,0,0,3,0,4,4,0,1,0,4,0,0,4,3,0,0,0,0,3,4,3,2,2,0,3,4,3,1,4,3,0,4,2,3,0,3,4,2,2,2,0,2,0,0,0,0,0,0,0,0,0,0,0,0,0,0,0,0,0,0,0,0,0,0,0,0,0,0,0,0,0,0,0,0,0,0,0,0,0,0,0,0,0,0,0,0,0,0,0,0,0,0,0,0,0,0,0,0,0],"split_type":[0,0,0,0,0,0,0,0,0,0,0,0,0,0,0,0,0,0,0,0,0,0,0,0,0,0,0,0,0,0,0,0,0,0,0,0,0,0,0,0,0,0,0,0,0,0,0,0,0,0,0,0,0,0,0,0,0,0,0,0,0,0,0,0,0,0,0,0,0,0,0,0,0,0,0,0,0,0,0,0,0,0,0,0,0,0,0,0,0,0,0,0,0,0,0,0,0,0,0,0,0,0,0,0,0,0,0,0,0,0,0,0,0,0,0],"sum_hessian":[1.2252E4,6.079E3,6.173E3,2.966E3,3.113E3,3.046E3,3.127E3,1.154E3,1.812E3,1.812E3,1.301E3,1.658E3,1.388E3,1.761E3,1.366E3,3.45E2,8.09E2,1.301E3,5.11E2,1.343E3,4.69E2,3.4E2,9.61E2,4.27E2,1.231E3,3.84E2,1.004E3,9.46E2,8.15E2,8.38E2,5.28E2,2.18E2,1.27E2,5.55E2,2.54E2,7.86E2,5.15E2,2.34E2,2.77E2,8.53E2,4.9E2,1E2,3.69E2,2.33E2,1.07E2,3.17E2,6.44E2,2.3E2,1.97E2,4.26E2,8.05E2,2.51E2,1.33E2,3.49E2,6.55E2,2.19E2,7.27E2,2.8E1,7.87E2,3.51E2,4.87E2,1.25E2,9.3E1,3.12E2,2.43E2,9E1,1.64E2,1.5E2,6.36E2,2.9E2,2.25E2,9.1E1,1.43E2,1.4E2,1.37E2,4.21E2,4.32E2,3.06E2,1.84E2,7E0,9.3E1,1.76E2,1.93E2,1.08E2,1.25E2,7.1E1,3.6E1,5E1,2.67E2,3.21E2,3.23E2,2.19E2,1.1E1,9.5E1,1.02E2,2.69E2,1.57E2,4.02E2,4.03E2,1.27E2,1.24E2,1.01E2,3.2E1,8.4E1,2.65E2,3.35E2,3.2E2,3.2E1,1.87E2,2.23E2,5.04E2,2.2E1,6E0,2.06E2,5.81E2],"tree_param":{"num_deleted":"0","num_feature":"6","num_nodes":"115","size_leaf_vector":"1"}},{"base_weights":[-2.4538982E-4,-1.1926682E0,1.0604262E0,-1.8678901E0,-6.2399685E-1,4.63819E-1,1.6017921E0,-2.4128125E0,-1.6007117E0,-9.221627E-1,-3.4363693E-1,2.0798944E-1,7.531049E-1,1.3171659E0,1.9492596E0,-2.791083E0,-2.25931E0,-1.4299883E0,-2.008739E0,-1.2786953E0,-7.949163E-1,-2.328201E-1,-6.663299E-1,4.8379648E-1,1.1361257E-1,1.0143292E0,6.5190995E-1,1.1369025E0,1.4406779E0,1.8150153E0,2.161674E0,-1.590483E-1,-1.3396862E-1,-2.1122563E0,-2.5598319E0,-1.6174642E0,-1.1575326E0,-2.2311192E0,-1.7715048E0,-1.8735453E0,-1.2210956E0,-6.922859E-1,-1.132743E0,-3.7724307E-1,4.4293564E-2,-1.8359551E0,-6.2034327E-1,3.2675678E-1,6.994276E-1,-1.9490728E-1,2.7041098E-1,9.077253E-1,6.29215E-2,3.510344E-1,8.154616E-1,-7.84766E-2,1.1425288E0,1.2478328E0,1.5181941E0,1.7043973E0,9.4371095E-2,1.0455405E-1,1.1451953E-1,-1.2374057E-1,-9.7776145E-2,-1.3194552E-1,-1.0335733E-1,-9.477291E-2,-7.4435525E-2,-6.3678905E-2,-4.14095E-2,-1.1175306E-1,-2.9956972E-2,-1.1893441E-1,-8.631813E-2,-9.752085E-2,-2.2734435E-2,-5.460422E-2,-7.334969E-2,-4.2296287E-2,-2.2157189E-2,-6.788791E-2,-5.0205868E-2,-2.2794975E-3,-3.707489E-2,-2.7974786E-3,1.1235133E-2,-9.5910564E-2,-1.710925E-2,-4.5580175E-2,-2.553696E-2,1.2164569E-2,3.433716E-2,3.212724E-2,5.6482684E-2,-2.3974095E-2,-6.694585E-3,2.1934494E-2,4.7102566E-3,3.860948E-2,5.4084223E-2,9.934216E-3,2.8807914E-2,4.779413E-2,3.354649E-2,6.720258E-2,5.3578116E-2,6.342433E-2,-3.5304822E-2,8.349186E-2,7.30613E-2,9.3725525E-2,8.226717E-2],"categories":[],"categories_nodes":[],"categories_segments":[],"categories_sizes":[],"default_left":[0,0,0,0,0,0,0,0,0,0,0,0,0,0,0,0,0,0,0,0,0,0,0,0,0,0,0,0,0,0,0,0,0,0,0,0,0,0,0,0,0,0,0,0,0,0,0,0,0,0,0,0,0,0,0,0,0,0,0,0,0,0,0,0,0,0,0,0,0,0,0,0,0,0,0,0,0,0,0,0,0,0,0,0,0,0,0,0,0,0,0,0,0,0,0,0,0,0,0,0,0,0,0,0,0,0,0,0,0,0,0,0,0],"id":7,"left_children":[1,3,5,7,9,11,13,15,17,19,21,23,25,27,29,31,33,35,37,39,41,43,45,47,49,51,53,55,57,59,61,-1,-1,63,65,67,69,71,73,75,77,79,81,83,85,87,89,91,93,95,97,99,-1,101,103,-1,105,107,109,111,-1,-1,-1,-1,-1,-1,-1,-1,-1,-1,-1,-1,-1,-1,-1,-1,-1,-1,-1,-1,-1,-1,-1,-1,-1,-1,-1,-1,-1,-1,-1,-1,-1,-1,-1,-1,-1,-1,-1,-1,-1,-1,-1,-1,-1,-1,-1,-1,-1,-1,-1,-1,-1],"loss_changes":[1.5399829E4,2.1998037E3,2.0805586E3,3.775879E2,2.599104E2,2.2682556E2,3.3151074E2,4.363037E1,1.1979834E2,6.739783E1,5.7275146E1,4.2347595E1,3.7378113E1,3.977466E1,3.93916E1,2.104126E0,2.1860107E1,6.1720947E1,2.332251E1,1.1246216E1,3.78396E1,4.7922546E1,2.0913803E1,1.3824448E1,5.8828846E1,9.266571E0,5.0890778E1,1.3381165E1,1.4549072E1,4.287842E0,5.078125E-1,0E0,0E0,1.9026855E1,2.2593994E0,2.3485962E1,1.8475037E1,3.527832E-1,2.8829956E0,2.7124634E0,9.913635E0,3.2429535E1,6.103882E0,9.504067E1,7.4454136E0,1.1866951E0,1.2176041E1,7.1041527E0,3.532364E0,7.0548296E0,2.3857967E1,5.813629E0,0E0,1.2507057E1,1.3017426E1,0E0,9.428833E0,1.3849884E1,4.298218E0,7.4328613E-1,0E0,0E0,0E0,0E0,0E0,0E0,0E0,0E0,0E0,0E0,0E0,0E0,0E0,0E0,0E0,0E0,0E0,0E0,0E0,0E0,0E0,0E0,0E0,0E0,0E0,0E0,0E0,0E0,0E0,0E0,0E0,0E0,0E0,0E0,0E0,0E0,0E0,0E0,0E0,0E0,0E0,0E0,0E0,0E0,0E0,0E0,0E0,0E0,0E0,0E0,0E0,0E0,0E0],"parents":[2147483647,0,0,1,1,2,2,3,3,4,4,5,5,6,6,7,7,8,8,9,9,10,10,11,11,12,12,13,13,14,14,15,15,16,16,17,17,18,18,19,19,20,20,21,21,22,22,23,23,24,24,25,25,26,26,27,27,28,28,29,29,30,30,33,33,34,34,35,35,36,36,37,37,38,38,39,39,40,40,41,41,42,42,43,43,44,44,45,45,46,46,47,47,48,48,49,49,50,50,51,51,53,53,54,54,56,56,57,57,58,58,59,59],"right_children":[2,4,6,8,10,12,14,16,18,20,22,24,26,28,30,32,34,36,38,40,42,44,46,48,50,52,54,56,58,60,62,-1,-1,64,66,68,70,72,74,76,78,80,82,84,86,88,90,92,94,96,98,100,-1,102,104,-1,106,108,110,112,-1,-1,-1,-1,-1,-1,-1,-1,-1,-1,-1,-1,-1,-1,-1,-1,-1,-1,-1,-1,-1,-1,-1,-1,-1,-1,-1,-1,-1,-1,-1,-1,-1,-1,-1,-1,-1,-1,-1,-1,-1,-1,-1,-1,-1,-1,-1,-1,-1,-1,-1,-1,-1],"split_conditions":[6.296E0,4.67E0,7.786667E0,3.5316668E0,5.504E0,7.0725E0,8.6455555E0,2.8766668E0,2.023E3,4.76E0,2.023E3,2.021E3,2.021E3,8.155E0,9.2E0,2.32E0,2.023E3,2.022E3,4.127E0,3.65E0,2.023E3,2.022E3,4.07875E0,6.735E0,2.022E3,7.71E0,2.022E3,3.235E0,6.5774856E0,8.892222E0,9.4925E0,-1.590483E-1,-1.3396862E-1,2.021E3,3.464E0,3.986E0,4.37E0,7.513401E0,3.575E0,6.178193E0,2.023E3,2.022E3,6.1383996E0,2.021E3,6.570909E0,3E0,5.71E0,7.49E0,7.44376E0,6.349678E0,2.023E3,7.4483333E0,6.29215E-2,7.5175E0,2.023E3,-7.84766E-2,2.021E3,4E0,2.021E3,2.021E3,9.4371095E-2,1.0455405E-1,1.1451953E-1,-1.2374057E-1,-9.7776145E-2,-1.3194552E-1,-1.0335733E-1,-9.477291E-2,-7.4435525E-2,-6.3678905E-2,-4.14095E-2,-1.1175306E-1,-2.9956972E-2,-1.1893441E-1,-8.631813E-2,-9.752085E-2,-2.2734435E-2,-5.460422E-2,-7.334969E-2,-4.2296287E-2,-2.2157189E-2,-6.788791E-2,-5.0205868E-2,-2.2794975E-3,-3.707489E-2,-2.7974786E-3,1.1235133E-2,-9.5910564E-2,-1.710925E-2,-4.5580175E-2,-2.553696E-2,1.2164569E-2,3.433716E-2,3.212724E-2,5.6482684E-2,-2.3974095E-2,-6.694585E-3,2.1934494E-2,4.7102566E-3,3.860948E-2,5.4084223E-2,9.934216E-3,2.8807914E-2,4.779413E-2,3.354649E-2,6.720258E-2,5.3578116E-2,6.342433E-2,-3.5304822E-2,8.349186E-2,7.30613E-2,9.3725525E-2,8.226717E-2],"split_indices":[3,3,3,3,3,3,3,3,0,4,0,0,0,3,3,3,0,0,3,4,0,0,4,3,0,4,0,4,2,3,3,0,0,0,3,3,3,2,4,1,0,0,2,0,4,5,3,4,2,1,0,3,0,3,0,0,0,5,0,0,0,0,0,0,0,0,0,0,0,0,0,0,0,0,0,0,0,0,0,0,0,0,0,0,0,0,0,0,0,0,0,0,0,0,0,0,0,0,0,0,0,0,0,0,0,0,0,0,0,0,0,0,0],"split_type":[0,0,0,0,0,0,0,0,0,0,0,0,0,0,0,0,0,0,0,0,0,0,0,0,0,0,0,0,0,0,0,0,0,0,0,0,0,0,0,0,0,0,0,0,0,0,0,0,0,0,0,0,0,0,0,0,0,0,0,0,0,0,0,0,0,0,0,0,0,0,0,0,0,0,0,0,0,0,0,0,0,0,0,0,0,0,0,0,0,0,0,0,0,0,0,0,0,0,0,0,0,0,0,0,0,0,0,0,0,0,0,0,0],"sum_hessian":[1.2174E4,5.731E3,6.443E3,2.619E3,3.112E3,3.066E3,3.377E3,8.59E2,1.76E3,1.507E3,1.605E3,1.628E3,1.438E3,1.859E3,1.518E3,2.43E2,6.16E2,1.244E3,5.16E2,3.94E2,1.113E3,1.196E3,4.09E2,4.14E2,1.214E3,3.99E2,1.039E3,7.6E2,1.099E3,9.36E2,5.82E2,4.8E1,1.95E2,4.19E2,1.97E2,7.34E2,5.1E2,2.62E2,2.54E2,3.2E1,3.62E2,8.56E2,2.57E2,7.86E2,4.1E2,1.4E1,3.95E2,2.41E2,1.73E2,4.09E2,8.05E2,2.81E2,1.18E2,3.67E2,6.72E2,1E0,7.59E2,3.2E2,7.79E2,3.8E2,5.56E2,3.87E2,1.95E2,1.22E2,2.97E2,1.66E2,3.1E1,2.28E2,5.06E2,3.75E2,1.35E2,2.61E2,1E0,1.4E1,2.4E2,3E1,2E0,2.41E2,1.21E2,5.28E2,3.28E2,9E1,1.67E2,4.12E2,3.74E2,2.64E2,1.46E2,1.3E1,1E0,1.06E2,2.89E2,1.97E2,4.4E1,1.55E2,1.8E1,7.1E1,3.38E2,4.11E2,3.94E2,1.61E2,1.2E2,2.2E2,1.47E2,3.38E2,3.34E2,1.93E2,5.66E2,3.17E2,3E0,2.05E2,5.74E2,9E1,2.9E2],"tree_param":{"num_deleted":"0","num_feature":"6","num_nodes":"113","size_leaf_vector":"1"}},{"base_weights":[3.21016E-5,-1.0994927E0,1.0451076E0,-1.812022E0,-5.9007984E-1,4.930164E-1,1.5468736E0,-2.2997296E0,-1.5498443E0,-9.120553E-1,-3.2707152E-1,2.3579115E-1,7.356672E-1,1.268494E0,1.845052E0,-2.1298764E0,-2.6157591E0,-1.3953254E0,-1.9247651E0,-7.8240705E-1,-1.2690469E0,-5.5540353E-1,-2.028824E-1,5.101242E-1,1.4496942E-1,9.720021E-1,6.4303404E-1,1.1166127E0,1.376663E0,1.7033502E0,2.0337026E0,-2.4811807E0,-1.9761256E0,-2.7527006E0,-2.3256295E0,-1.57809E0,-1.136771E0,-2.1464267E0,-1.6968262E0,-9.6525174E-1,-4.7527927E-1,-1.5863872E0,-1.1431696E0,-1.2139077E0,-5.0174874E-1,1.0151323E-1,-3.1246933E-1,3.9509663E-1,7.6795876E-1,-1.5837632E-1,2.9727826E-1,8.6429596E-1,1.1936389E0,3.6613145E-1,7.894157E-1,-7.651468E-2,1.1224878E0,1.256707E0,1.4617068E0,1.6159077E0,8.883974E-2,9.774424E-2,1.0808623E-1,-1.3528125E-1,-1.13196075E-1,-1.17720485E-1,-9.2362724E-2,-1.400996E-1,-1.0534302E-1,-1.1682641E-1,-3.0621743E-2,-9.710939E-2,-7.3956124E-2,-6.682459E-2,-4.7028106E-2,-7.449951E-2,-1.0860627E-1,-9.836244E-2,-8.028909E-2,-3.5795517E-2,-6.00886E-2,-2.9385258E-2,-1.1527292E-2,-1.1160876E-1,-7.518124E-2,-6.60757E-2,-5.1416665E-2,-3.8242828E-2,-8.9880206E-2,-3.038002E-2,-1.3798167E-2,-4.6020667E-3,1.5202745E-2,-2.9549567E-2,-9.627574E-3,1.7963102E-2,4.674716E-2,2.8769333E-2,4.4868976E-2,-1.5556251E-2,-2.3810838E-4,2.2582939E-2,7.0826756E-3,2.0706853E-2,4.505545E-2,5.633713E-2,7.1346305E-2,9.771748E-3,2.9456092E-2,3.4506977E-2,4.8211083E-2,6.648753E-2,5.248625E-2,6.4624265E-2,3.6672443E-2,6.870806E-2,7.8526996E-2,8.7854005E-2,7.82725E-2],"categories":[],"categories_nodes":[],"categories_segments":[],"categories_sizes":[],"default_left":[0,0,0,0,0,0,0,0,0,0,0,0,0,0,0,0,0,0,0,0,0,0,0,0,0,0,0,0,0,0,0,0,0,0,0,0,0,0,0,0,0,0,0,0,0,0,0,0,0,0,0,0,0,0,0,0,0,0,0,0,0,0,0,0,0,0,0,0,0,0,0,0,0,0,0,0,0,0,0,0,0,0,0,0,0,0,0,0,0,0,0,0,0,0,0,0,0,0,0,0,0,0,0,0,0,0,0,0,0,0,0,0,0,0,0,0,0,0,0],"id":8,"left_children":[1,3,5,7,9,11,13,15,17,19,21,23,25,27,29,31,33,35,37,39,41,43,45,47,49,51,53,55,57,59,61,63,65,67,69,71,73,75,77,79,81,83,85,87,89,91,93,95,97,99,101,103,105,107,109,-1,111,113,115,117,-1,-1,-1,-1,-1,-1,-1,-1,-1,-1,-1,-1,-1,-1,-1,-1,-1,-1,-1,-1,-1,-1,-1,-1,-1,-1,-1,-1,-1,-1,-1,-1,-1,-1,-1,-1,-1,-1,-1,-1,-1,-1,-1,-1,-1,-1,-1,-1,-1,-1,-1,-1,-1,-1,-1,-1,-1,-1,-1],"loss_changes":[1.4030344E4,2.1586118E3,1.7333862E3,3.1354346E2,2.936338E2,1.8595074E2,2.6983887E2,4.086084E1,9.093335E1,7.120911E1,5.4104675E1,3.6028473E1,3.2957886E1,2.6375488E1,3.8799805E1,2.5776611E1,5.4379883E0,5.2454346E1,2.0054321E1,6.3953003E1,1.4724121E1,2.3169296E1,4.139537E1,1.0373497E1,5.040751E1,9.233154E0,4.4500427E1,1.2789917E1,8.242065E0,2.9665527E0,2.5649414E0,2.1156006E0,1.5150757E1,3.6791992E-1,4.7351074E-1,2.1269897E1,1.751355E1,7.110596E-1,2.6514282E0,4.1483154E1,1.1695679E1,2.7900696E0,4.785187E0,1.1730576E1,1.4745773E1,1.2925728E1,3.0346786E1,4.5197487E0,2.225174E0,8.563011E0,1.7378479E1,4.482315E0,5.458679E-1,1.4501324E1,1.1864166E1,0E0,9.326721E0,6.8588257E0,3.291626E0,2.8381348E-1,0E0,0E0,0E0,0E0,0E0,0E0,0E0,0E0,0E0,0E0,0E0,0E0,0E0,0E0,0E0,0E0,0E0,0E0,0E0,0E0,0E0,0E0,0E0,0E0,0E0,0E0,0E0,0E0,0E0,0E0,0E0,0E0,0E0,0E0,0E0,0E0,0E0,0E0,0E0,0E0,0E0,0E0,0E0,0E0,0E0,0E0,0E0,0E0,0E0,0E0,0E0,0E0,0E0,0E0,0E0,0E0,0E0,0E0,0E0],"parents":[2147483647,0,0,1,1,2,2,3,3,4,4,5,5,6,6,7,7,8,8,9,9,10,10,11,11,12,12,13,13,14,14,15,15,16,16,17,17,18,18,19,19,20,20,21,21,22,22,23,23,24,24,25,25,26,26,27,27,28,28,29,29,30,30,31,31,32,32,33,33,34,34,35,35,36,36,37,37,38,38,39,39,40,40,41,41,42,42,43,43,44,44,45,45,46,46,47,47,48,48,49,49,50,50,51,51,52,52,53,53,54,54,56,56,57,57,58,58,59,59],"right_children":[2,4,6,8,10,12,14,16,18,20,22,24,26,28,30,32,34,36,38,40,42,44,46,48,50,52,54,56,58,60,62,64,66,68,70,72,74,76,78,80,82,84,86,88,90,92,94,96,98,100,102,104,106,108,110,-1,112,114,116,118,-1,-1,-1,-1,-1,-1,-1,-1,-1,-1,-1,-1,-1,-1,-1,-1,-1,-1,-1,-1,-1,-1,-1,-1,-1,-1,-1,-1,-1,-1,-1,-1,-1,-1,-1,-1,-1,-1,-1,-1,-1,-1,-1,-1,-1,-1,-1,-1,-1,-1,-1,-1,-1,-1,-1,-1,-1,-1,-1],"split_conditions":[6.3403816E0,4.5675E0,7.8366666E0,3.5316668E0,5.455E0,7.0725E0,8.632E0,2.023E3,2.023E3,2.023E3,5.567143E0,2.021E3,2.021E3,8.1925E0,9.133333E0,2.021E3,3.27E0,2.022E3,4.075E0,2.022E3,4.6225E0,4.07875E0,2.021E3,6.420697E0,2.022E3,7.7294593E0,2.022E3,3.235E0,6.6401424E0,8.892222E0,9.4445E0,3.095E0,2.8766668E0,5.85845E0,7.2118516E0,4.07875E0,4.075E0,5.5679307E0,5.9146953E0,2.021E3,6.2568455E0,3.4825E0,4.945E0,5.9255943E0,6.272216E0,5.996E0,2.022E3,7.9975E0,6.463992E0,6.394795E0,2.023E3,5.300833E0,8.343333E0,7.5175E0,7.55E0,-7.651468E-2,2.021E3,6.9617314E0,6.73733E0,2.021E3,8.883974E-2,9.774424E-2,1.0808623E-1,-1.3528125E-1,-1.13196075E-1,-1.17720485E-1,-9.2362724E-2,-1.400996E-1,-1.0534302E-1,-1.1682641E-1,-3.0621743E-2,-9.710939E-2,-7.3956124E-2,-6.682459E-2,-4.7028106E-2,-7.449951E-2,-1.0860627E-1,-9.836244E-2,-8.028909E-2,-3.5795517E-2,-6.00886E-2,-2.9385258E-2,-1.1527292E-2,-1.1160876E-1,-7.518124E-2,-6.60757E-2,-5.1416665E-2,-3.8242828E-2,-8.9880206E-2,-3.038002E-2,-1.3798167E-2,-4.6020667E-3,1.5202745E-2,-2.9549567E-2,-9.627574E-3,1.7963102E-2,4.674716E-2,2.8769333E-2,4.4868976E-2,-1.5556251E-2,-2.3810838E-4,2.2582939E-2,7.0826756E-3,2.0706853E-2,4.505545E-2,5.633713E-2,7.1346305E-2,9.771748E-3,2.9456092E-2,3.4506977E-2,4.8211083E-2,6.648753E-2,5.248625E-2,6.4624265E-2,3.6672443E-2,6.870806E-2,7.8526996E-2,8.7854005E-2,7.82725E-2],"split_indices":[1,3,3,3,3,3,3,0,0,0,4,0,0,3,3,0,3,0,3,0,4,4,0,1,0,4,0,4,2,3,3,3,3,1,2,4,3,1,2,0,2,4,3,2,1,3,0,4,2,1,0,4,4,3,3,0,0,1,1,0,0,0,0,0,0,0,0,0,0,0,0,0,0,0,0,0,0,0,0,0,0,0,0,0,0,0,0,0,0,0,0,0,0,0,0,0,0,0,0,0,0,0,0,0,0,0,0,0,0,0,0,0,0,0,0,0,0,0,0],"split_type":[0,0,0,0,0,0,0,0,0,0,0,0,0,0,0,0,0,0,0,0,0,0,0,0,0,0,0,0,0,0,0,0,0,0,0,0,0,0,0,0,0,0,0,0,0,0,0,0,0,0,0,0,0,0,0,0,0,0,0,0,0,0,0,0,0,0,0,0,0,0,0,0,0,0,0,0,0,0,0,0,0,0,0,0,0,0,0,0,0,0,0,0,0,0,0,0,0,0,0,0,0,0,0,0,0,0,0,0,0,0,0,0,0,0,0,0,0,0,0],"sum_hessian":[1.2208E4,5.949E3,6.259E3,2.479E3,3.47E3,2.981E3,3.278E3,8.64E2,1.615E3,1.559E3,1.911E3,1.448E3,1.533E3,1.698E3,1.58E3,5.67E2,2.97E2,1.147E3,4.68E2,1.146E3,4.13E2,6.72E2,1.239E3,3.59E2,1.089E3,4.29E2,1.104E3,7.11E2,9.87E2,9.08E2,6.72E2,1.68E2,3.99E2,1.96E2,1.01E2,6.69E2,4.78E2,2.33E2,2.35E2,7.17E2,4.29E2,1.14E2,2.99E2,4.9E1,6.23E2,3.28E2,9.11E2,2.5E2,1.09E2,3.64E2,7.25E2,2.92E2,1.37E2,3.83E2,7.21E2,1E0,7.1E2,4.16E2,5.71E2,4.25E2,4.83E2,4.26E2,2.46E2,7.7E1,9.1E1,9.7E1,3.02E2,1.79E2,1.7E1,1E2,1E0,1.39E2,5.3E2,2.34E2,2.44E2,1.1E1,2.22E2,5.4E1,1.81E2,3.51E2,3.66E2,2.93E2,1.36E2,1E1,1.04E2,1.13E2,1.86E2,2.9E1,2E1,4.23E2,2E2,1.68E2,1.6E2,2.73E2,6.38E2,2.36E2,1.4E1,4.6E1,6.3E1,1.82E2,1.82E2,3.63E2,3.62E2,2.3E1,2.69E2,1.11E2,2.6E1,2.18E2,1.65E2,4.63E2,2.58E2,1.8E2,5.3E2,3.88E2,2.8E1,3.24E2,2.47E2,1.03E2,3.22E2],"tree_param":{"num_deleted":"0","num_feature":"6","num_nodes":"119","size_leaf_vector":"1"}},{"base_weights":[4.2697444E-4,-1.1023306E0,9.4195676E-1,-1.7976593E0,-6.796804E-1,4.088264E-1,1.4632522E0,-2.1984553E0,-1.5336449E0,-9.95631E-1,-4.307742E-1,1.4309403E-1,6.5238225E-1,1.2137278E0,1.7697759E0,-2.5481136E0,-2.0592341E0,-1.371635E0,-1.9020338E0,-1.3012305E0,-8.510745E-1,-6.4873296E-1,-2.8584343E-1,4.2149407E-1,4.833404E-2,9.053323E-1,5.569461E-1,1.1048775E0,1.3625112E0,1.6349752E0,1.930351E0,-1.1889118E-1,-2.782558E0,-1.9224659E0,-2.3292954E0,-1.5536716E0,-1.1345532E0,-2.0350378E0,-1.669231E0,-1.9353172E0,-1.2377484E0,-7.6481223E-1,-1.1508113E0,-9.182088E-1,-5.504225E-1,-1.8847227E-1,-5.982214E-1,2.7587378E-1,5.90402E-1,-2.5010896E-1,2.0413302E-1,8.0008733E-1,1.1448954E0,2.8335357E-1,7.108945E-1,9.317236E-1,1.1894162E0,8.6233646E-1,1.3801997E0,7.6754294E-2,8.4313326E-2,9.339648E-2,1.03652656E-1,-1.4034788E-1,-5.574592E-2,-1.1263557E-1,-8.9097284E-2,-1.1890757E-1,-8.3317876E-2,-8.9867465E-2,-7.194711E-2,-7.87081E-2,-5.227941E-2,-1.1126405E-1,-9.666935E-2,-8.806919E-2,-7.1784265E-2,-5.6938E-2,-1.00508E-1,-5.6676406E-2,-7.193161E-2,-4.7139484E-2,-2.3863625E-2,-6.297381E-2,-4.999845E-2,-3.959668E-2,-6.5461E-2,-3.674234E-2,-2.1293877E-2,-1.5478347E-2,4.6501402E-4,-4.1892722E-2,-2.2440003E-2,9.8735895E-3,2.1387866E-2,2.6327139E-2,4.8518825E-2,-2.5920568E-2,-7.309656E-3,1.8470403E-2,1.7633401E-3,2.693055E-2,4.222787E-2,5.3470027E-2,6.819563E-2,2.110757E-3,2.1446282E-2,2.7976502E-2,4.2437214E-2,-7.460182E-2,4.714083E-2,5.4795325E-2,6.733997E-2,5.5906903E-2,-5.0797928E-2,7.672923E-2,6.596603E-2],"categories":[],"categories_nodes":[],"categories_segments":[],"categories_sizes":[],"default_left":[0,0,0,0,0,0,0,0,0,0,0,0,0,0,0,0,0,0,0,0,0,0,0,0,0,0,0,0,0,0,0,0,0,0,0,0,0,0,0,0,0,0,0,0,0,0,0,0,0,0,0,0,0,0,0,0,0,0,0,0,0,0,0,0,0,0,0,0,0,0,0,0,0,0,0,0,0,0,0,0,0,0,0,0,0,0,0,0,0,0,0,0,0,0,0,0,0,0,0,0,0,0,0,0,0,0,0,0,0,0,0,0,0,0,0,0,0],"id":9,"left_children":[1,3,5,7,9,11,13,15,17,19,21,23,25,27,29,31,33,35,37,39,41,43,45,47,49,51,53,55,57,59,61,-1,63,65,67,69,71,73,75,77,79,81,83,85,87,89,91,93,95,97,99,101,103,105,107,109,111,113,115,-1,-1,-1,-1,-1,-1,-1,-1,-1,-1,-1,-1,-1,-1,-1,-1,-1,-1,-1,-1,-1,-1,-1,-1,-1,-1,-1,-1,-1,-1,-1,-1,-1,-1,-1,-1,-1,-1,-1,-1,-1,-1,-1,-1,-1,-1,-1,-1,-1,-1,-1,-1,-1,-1,-1,-1,-1,-1],"loss_changes":[1.2651432E4,1.6480371E3,1.8261602E3,2.2106396E2,2.741891E2,2.1031354E2,2.5201172E2,3.5644043E1,7.39043E1,6.6835815E1,6.1570984E1,4.1028755E1,4.0438232E1,2.8212646E1,2.9074219E1,2.765747E0,1.7905273E1,3.682019E1,8.648071E0,1.7409119E1,2.619104E1,2.01586E1,3.565718E1,9.5527115E0,5.40807E1,1.0757507E1,5.177359E1,1.4481445E1,5.6311035E0,1.592041E0,2.1315918E0,0E0,6.5460205E-1,1.4919434E1,2.4824219E0,1.1476196E1,1.368512E1,3.968506E-1,6.349182E-1,2.7441406E-1,7.7905884E0,4.1309326E1,2.543335E0,9.183807E0,1.2871307E1,2.1509266E1,9.61393E0,2.4638367E0,3.9052696E0,1.1048677E1,2.1309736E1,3.324173E0,8.397522E-1,1.563784E1,1.5988037E1,1.092453E1,9.002441E0,1.5069643E1,4.95874E0,0E0,0E0,0E0,0E0,0E0,0E0,0E0,0E0,0E0,0E0,0E0,0E0,0E0,0E0,0E0,0E0,0E0,0E0,0E0,0E0,0E0,0E0,0E0,0E0,0E0,0E0,0E0,0E0,0E0,0E0,0E0,0E0,0E0,0E0,0E0,0E0,0E0,0E0,0E0,0E0,0E0,0E0,0E0,0E0,0E0,0E0,0E0,0E0,0E0,0E0,0E0,0E0,0E0,0E0,0E0,0E0,0E0,0E0],"parents":[2147483647,0,0,1,1,2,2,3,3,4,4,5,5,6,6,7,7,8,8,9,9,10,10,11,11,12,12,13,13,14,14,15,15,16,16,17,17,18,18,19,19,20,20,21,21,22,22,23,23,24,24,25,25,26,26,27,27,28,28,29,29,30,30,32,32,33,33,34,34,35,35,36,36,37,37,38,38,39,39,40,40,41,41,42,42,43,43,44,44,45,45,46,46,47,47,48,48,49,49,50,50,51,51,52,52,53,53,54,54,55,55,56,56,57,57,58,58],"right_children":[2,4,6,8,10,12,14,16,18,20,22,24,26,28,30,32,34,36,38,40,42,44,46,48,50,52,54,56,58,60,62,-1,64,66,68,70,72,74,76,78,80,82,84,86,88,90,92,94,96,98,100,102,104,106,108,110,112,114,116,-1,-1,-1,-1,-1,-1,-1,-1,-1,-1,-1,-1,-1,-1,-1,-1,-1,-1,-1,-1,-1,-1,-1,-1,-1,-1,-1,-1,-1,-1,-1,-1,-1,-1,-1,-1,-1,-1,-1,-1,-1,-1,-1,-1,-1,-1,-1,-1,-1,-1,-1,-1,-1,-1,-1,-1,-1,-1],"split_conditions":[6.308974E0,4.39E0,7.8366666E0,3.5316668E0,5.2633333E0,6.983E0,8.683333E0,2.8766668E0,2.023E3,4.780476E0,5.59E0,2.021E3,2.021E3,8.335E0,9.133333E0,2.023E3,2.023E3,2.022E3,4.075E0,3.65E0,2.023E3,4.56E0,2.023E3,6.7495775E0,2.022E3,7.7294593E0,2.022E3,6.541392E0,6.09E0,8.846666E0,9.4925E0,-1.1889118E-1,6.5542326E0,2.021E3,3.505E0,4.33E0,4.13E0,5.9146953E0,5.9984984E0,2.021E3,2.023E3,2.022E3,4.93E0,5.9990134E0,5.6016665E0,2.022E3,5.71E0,6.65E0,8.16E0,6.4275E0,2.023E3,5.6066666E0,8.343333E0,7.27E0,7.3775E0,3.235E0,6.6883903E0,6.9617314E0,2.021E3,7.6754294E-2,8.4313326E-2,9.339648E-2,1.03652656E-1,-1.4034788E-1,-5.574592E-2,-1.1263557E-1,-8.9097284E-2,-1.1890757E-1,-8.3317876E-2,-8.9867465E-2,-7.194711E-2,-7.87081E-2,-5.227941E-2,-1.1126405E-1,-9.666935E-2,-8.806919E-2,-7.1784265E-2,-5.6938E-2,-1.00508E-1,-5.6676406E-2,-7.193161E-2,-4.7139484E-2,-2.3863625E-2,-6.297381E-2,-4.999845E-2,-3.959668E-2,-6.5461E-2,-3.674234E-2,-2.1293877E-2,-1.5478347E-2,4.6501402E-4,-4.1892722E-2,-2.2440003E-2,9.8735895E-3,2.1387866E-2,2.6327139E-2,4.8518825E-2,-2.5920568E-2,-7.309656E-3,1.8470403E-2,1.7633401E-3,2.693055E-2,4.222787E-2,5.3470027E-2,6.819563E-2,2.110757E-3,2.1446282E-2,2.7976502E-2,4.2437214E-2,-7.460182E-2,4.714083E-2,5.4795325E-2,6.733997E-2,5.5906903E-2,-5.0797928E-2,7.672923E-2,6.596603E-2],"split_indices":[1,3,3,3,3,3,3,3,0,4,4,0,0,3,3,0,0,0,3,4,0,4,0,4,0,4,0,2,4,3,3,0,2,0,3,4,4,2,1,0,0,0,3,2,3,0,3,3,4,3,0,4,4,3,3,4,1,1,0,0,0,0,0,0,0,0,0,0,0,0,0,0,0,0,0,0,0,0,0,0,0,0,0,0,0,0,0,0,0,0,0,0,0,0,0,0,0,0,0,0,0,0,0,0,0,0,0,0,0,0,0,0,0,0,0,0,0],"split_type":[0,0,0,0,0,0,0,0,0,0,0,0,0,0,0,0,0,0,0,0,0,0,0,0,0,0,0,0,0,0,0,0,0,0,0,0,0,0,0,0,0,0,0,0,0,0,0,0,0,0,0,0,0,0,0,0,0,0,0,0,0,0,0,0,0,0,0,0,0,0,0,0,0,0,0,0,0,0,0,0,0,0,0,0,0,0,0,0,0,0,0,0,0,0,0,0,0,0,0,0,0,0,0,0,0,0,0,0,0,0,0,0,0,0,0,0,0],"sum_hessian":[1.2183E4,5.611E3,6.572E3,2.12E3,3.491E3,3.25E3,3.322E3,8.39E2,1.281E3,1.537E3,1.954E3,1.555E3,1.695E3,1.834E3,1.488E3,2.34E2,6.05E2,8.93E2,3.88E2,4.91E2,1.046E3,7.79E2,1.175E3,3.94E2,1.161E3,4.62E2,1.233E3,1.064E3,7.7E2,8.15E2,6.73E2,1.42E2,9.2E1,4.07E2,1.98E2,5.02E2,3.91E2,2.42E2,1.46E2,4.2E1,4.49E2,8.15E2,2.31E2,2.06E2,5.73E2,8.97E2,2.78E2,2.13E2,1.81E2,3.98E2,7.63E2,3.24E2,1.38E2,4.45E2,7.88E2,3.53E2,7.11E2,2.8E1,7.42E2,2.87E2,5.28E2,4.78E2,1.95E2,9E1,2E0,1.17E2,2.9E2,1.82E2,1.6E1,1.56E2,3.46E2,6.3E1,3.28E2,7.7E1,1.65E2,1E2,4.6E1,5E0,3.7E1,3E2,1.49E2,5.02E2,3.13E2,1.3E2,1.01E2,1.58E2,4.8E1,2.29E2,3.44E2,5.56E2,3.41E2,1.05E2,1.73E2,1.42E2,7.1E1,1.57E2,2.4E1,1.1E2,2.88E2,3.85E2,3.78E2,4.9E1,2.75E2,1.07E2,3.1E1,1.68E2,2.77E2,3.78E2,4.1E2,1E0,3.52E2,4.51E2,2.6E2,2.5E1,3E0,2.03E2,5.39E2],"tree_param":{"num_deleted":"0","num_feature":"6","num_nodes":"117","size_leaf_vector":"1"}},{"base_weights":[3.6528027E-3,-1.0523146E0,8.9871955E-1,-1.6964813E0,-6.257565E-1,4.063456E-1,1.4030957E0,-2.1181011E0,-1.472017E0,-9.817434E-1,-4.1924095E-1,1.1052907E-1,6.157434E-1,1.1701341E0,1.6795672E0,-1.9625295E0,-2.4082568E0,-1.3268075E0,-1.7903417E0,-1.2670377E0,-8.242433E-1,-3.125131E-1,-7.319282E-1,3.661002E-1,1.5594421E-2,4.881962E-1,7.9716426E-1,1.0370731E0,1.268935E0,1.5744401E0,9.339207E-2,-2.230568E0,-1.8063895E0,-1.4216362E-1,-2.3248258E0,-1.4910696E0,-1.0979004E0,-1.9272691E0,-1.5804299E0,-1.8969218E0,-1.2038733E0,-7.5464183E-1,-1.0565652E0,-4.5019034E-1,-5.017884E-2,-1.198997E0,-6.575095E-1,3.2049552E-1,9.6417457E-1,-2.4889828E-1,1.5914078E-1,7.564975E-1,3.9227307E-1,9.977466E-1,7.188045E-1,-7.273678E-2,1.0422865E0,1.4206498E0,1.2168227E0,1.476145E0,8.183937E-2,-1.244567E-1,-1.0463744E-1,-9.871883E-2,-7.851518E-2,-1.1855656E-1,-9.1718085E-2,-8.559073E-2,-6.622597E-2,-7.497974E-2,-5.1028114E-2,-6.487132E-2,-9.7328894E-2,-9.1935195E-2,-7.4431255E-2,-9.609868E-2,-2.425015E-2,-5.4883923E-2,-6.9947444E-2,-4.6270892E-2,-2.4434796E-2,-2.5960987E-2,-5.5276226E-2,-7.7256286E-3,-3.756547E-2,-9.678523E-3,7.4893334E-3,-1.0909319E-1,-5.4732062E-2,-4.1317947E-2,-2.5022462E-2,1.106357E-2,2.4504174E-2,5.164689E-2,2.814037E-2,-2.2199545E-2,-7.916375E-3,1.9100549E-3,1.7533839E-2,3.377701E-2,4.9785536E-2,5.1268595E-3,2.6346907E-2,2.4250356E-2,5.161956E-2,2.4574516E-2,4.2212322E-2,6.0875196E-2,4.9092006E-2,3.9259296E-2,7.204771E-2,5.0829142E-2,6.561005E-2,8.046167E-2,7.129227E-2],"categories":[],"categories_nodes":[],"categories_segments":[],"categories_sizes":[],"default_left":[0,0,0,0,0,0,0,0,0,0,0,0,0,0,0,0,0,0,0,0,0,0,0,0,0,0,0,0,0,0,0,0,0,0,0,0,0,0,0,0,0,0,0,0,0,0,0,0,0,0,0,0,0,0,0,0,0,0,0,0,0,0,0,0,0,0,0,0,0,0,0,0,0,0,0,0,0,0,0,0,0,0,0,0,0,0,0,0,0,0,0,0,0,0,0,0,0,0,0,0,0,0,0,0,0,0,0,0,0,0,0,0,0,0,0],"id":10,"left_children":[1,3,5,7,9,11,13,15,17,19,21,23,25,27,29,31,33,35,37,39,41,43,45,47,49,51,53,55,57,59,-1,61,63,-1,65,67,69,71,73,75,77,79,81,83,85,87,89,91,93,95,97,99,101,103,105,-1,107,109,111,113,-1,-1,-1,-1,-1,-1,-1,-1,-1,-1,-1,-1,-1,-1,-1,-1,-1,-1,-1,-1,-1,-1,-1,-1,-1,-1,-1,-1,-1,-1,-1,-1,-1,-1,-1,-1,-1,-1,-1,-1,-1,-1,-1,-1,-1,-1,-1,-1,-1,-1,-1,-1,-1,-1,-1],"loss_changes":[1.1483711E4,1.5305312E3,1.6325249E3,2.0697949E2,2.4623743E2,2.061413E2,2.0722949E2,2.9986328E1,6.4741455E1,5.4269287E1,7.068771E1,3.3500877E1,4.4710144E1,2.1900879E1,2.641211E1,1.7147705E1,2.9714355E0,3.600122E1,9.945801E0,1.5063171E1,1.2073914E1,5.725969E1,1.7981323E1,9.891834E0,3.831031E1,2.9222778E1,1.1904053E1,1.1363281E1,6.2487793E0,3.454834E0,0E0,1.2765503E0,9.78894E0,0E0,8.060303E-1,1.9056519E1,1.1579559E1,7.4591064E-1,1.6256409E0,4.1194153E-1,6.7300415E0,2.752472E1,4.18779E0,9.247949E1,1.5713331E1,5.099098E0,1.1997604E1,5.7642555E0,1.362381E-1,6.202446E0,1.5136061E1,5.15654E0,3.2993637E1,3.4606018E0,1.615213E1,0E0,6.8222046E0,2.1200867E0,1.31427E1,2.626953E-1,0E0,0E0,0E0,0E0,0E0,0E0,0E0,0E0,0E0,0E0,0E0,0E0,0E0,0E0,0E0,0E0,0E0,0E0,0E0,0E0,0E0,0E0,0E0,0E0,0E0,0E0,0E0,0E0,0E0,0E0,0E0,0E0,0E0,0E0,0E0,0E0,0E0,0E0,0E0,0E0,0E0,0E0,0E0,0E0,0E0,0E0,0E0,0E0,0E0,0E0,0E0,0E0,0E0,0E0,0E0],"parents":[2147483647,0,0,1,1,2,2,3,3,4,4,5,5,6,6,7,7,8,8,9,9,10,10,11,11,12,12,13,13,14,14,15,15,16,16,17,17,18,18,19,19,20,20,21,21,22,22,23,23,24,24,25,25,26,26,27,27,28,28,29,29,31,31,32,32,34,34,35,35,36,36,37,37,38,38,39,39,40,40,41,41,42,42,43,43,44,44,45,45,46,46,47,47,48,48,49,49,50,50,51,51,52,52,53,53,54,54,56,56,57,57,58,58,59,59],"right_children":[2,4,6,8,10,12,14,16,18,20,22,24,26,28,30,32,34,36,38,40,42,44,46,48,50,52,54,56,58,60,-1,62,64,-1,66,68,70,72,74,76,78,80,82,84,86,88,90,92,94,96,98,100,102,104,106,-1,108,110,112,114,-1,-1,-1,-1,-1,-1,-1,-1,-1,-1,-1,-1,-1,-1,-1,-1,-1,-1,-1,-1,-1,-1,-1,-1,-1,-1,-1,-1,-1,-1,-1,-1,-1,-1,-1,-1,-1,-1,-1,-1,-1,-1,-1,-1,-1,-1,-1,-1,-1,-1,-1,-1,-1,-1,-1],"split_conditions":[6.2211113E0,4.4355555E0,7.865E0,3.464E0,5.1633334E0,6.430538E0,8.683333E0,2.023E3,2.023E3,4.82E0,2.023E3,2.021E3,7.4483333E0,8.236667E0,9.234E0,2.955E0,2.55E0,2.022E3,4.075E0,3.65E0,2.023E3,2.022E3,4.502857E0,7.9975E0,2.022E3,2.021E3,2.021E3,3.235E0,2.021E3,8.901111E0,9.339207E-2,2.021E3,2.022E3,-1.4216362E-1,5.881812E0,3.961E0,4.13E0,5.5679307E0,5.921266E0,6.1456103E0,2.023E3,2.022E3,5.915484E0,2.021E3,6.2011113E0,3.4825E0,5.71E0,6.6175E0,8.049086E0,6.349678E0,6.382422E0,7.7182355E0,2.022E3,5.59E0,2.022E3,-7.273678E-2,2.021E3,6.09E0,2.022E3,2.021E3,8.183937E-2,-1.244567E-1,-1.0463744E-1,-9.871883E-2,-7.851518E-2,-1.1855656E-1,-9.1718085E-2,-8.559073E-2,-6.622597E-2,-7.497974E-2,-5.1028114E-2,-6.487132E-2,-9.7328894E-2,-9.1935195E-2,-7.4431255E-2,-9.609868E-2,-2.425015E-2,-5.4883923E-2,-6.9947444E-2,-4.6270892E-2,-2.4434796E-2,-2.5960987E-2,-5.5276226E-2,-7.7256286E-3,-3.756547E-2,-9.678523E-3,7.4893334E-3,-1.0909319E-1,-5.4732062E-2,-4.1317947E-2,-2.5022462E-2,1.106357E-2,2.4504174E-2,5.164689E-2,2.814037E-2,-2.2199545E-2,-7.916375E-3,1.9100549E-3,1.7533839E-2,3.377701E-2,4.9785536E-2,5.1268595E-3,2.6346907E-2,2.4250356E-2,5.161956E-2,2.4574516E-2,4.2212322E-2,6.0875196E-2,4.9092006E-2,3.9259296E-2,7.204771E-2,5.0829142E-2,6.561005E-2,8.046167E-2,7.129227E-2],"split_indices":[3,3,3,3,3,1,3,0,0,4,0,0,3,3,3,3,3,0,3,4,0,0,4,4,0,0,0,4,0,3,0,0,0,0,1,3,4,1,2,1,0,0,1,0,4,4,3,3,2,1,1,4,0,4,0,0,0,4,0,0,0,0,0,0,0,0,0,0,0,0,0,0,0,0,0,0,0,0,0,0,0,0,0,0,0,0,0,0,0,0,0,0,0,0,0,0,0,0,0,0,0,0,0,0,0,0,0,0,0,0,0,0,0,0,0],"split_type":[0,0,0,0,0,0,0,0,0,0,0,0,0,0,0,0,0,0,0,0,0,0,0,0,0,0,0,0,0,0,0,0,0,0,0,0,0,0,0,0,0,0,0,0,0,0,0,0,0,0,0,0,0,0,0,0,0,0,0,0,0,0,0,0,0,0,0,0,0,0,0,0,0,0,0,0,0,0,0,0,0,0,0,0,0,0,0,0,0,0,0,0,0,0,0,0,0,0,0,0,0,0,0,0,0,0,0,0,0,0,0,0,0,0,0],"sum_hessian":[1.2148E4,5.573E3,6.575E3,2.219E3,3.354E3,3.328E3,3.247E3,7.68E2,1.451E3,1.23E3,2.124E3,1.38E3,1.948E3,1.765E3,1.482E3,5.05E2,2.63E2,1E3,4.51E2,4.35E2,7.95E2,1.585E3,5.39E2,3.73E2,1.007E3,1.146E3,8.02E2,7.57E2,1.008E3,9.57E2,5.25E2,1.81E2,3.24E2,3.7E1,2.26E2,5.79E2,4.21E2,2.68E2,1.83E2,3.7E1,3.98E2,6.15E2,1.8E2,1.039E3,5.46E2,7.2E1,4.67E2,3.48E2,2.5E1,3.54E2,6.53E2,3E2,8.46E2,2.22E2,5.8E2,1E0,7.56E2,2.51E2,7.57E2,3.81E2,5.76E2,5.7E1,1.24E2,1.85E2,1.39E2,2.03E2,2.3E1,2.45E2,3.34E2,6.5E1,3.56E2,1E1,2.58E2,4.3E1,1.4E2,3.6E1,1E0,2.62E2,1.36E2,3.73E2,2.42E2,1.6E1,1.64E2,5.25E2,5.14E2,3.18E2,2.28E2,5E0,6.7E1,2.23E2,2.44E2,2.21E2,1.27E2,2E1,5E0,1.11E2,2.43E2,4.01E2,2.52E2,2.27E2,7.3E1,2.69E2,5.77E2,1.5E1,2.07E2,2.08E2,3.72E2,1.89E2,5.67E2,9E0,2.42E2,2.48E2,5.09E2,9.6E1,2.85E2],"tree_param":{"num_deleted":"0","num_feature":"6","num_nodes":"115","size_leaf_vector":"1"}},{"base_weights":[1.9630534E-3,-1.0391127E0,8.175151E-1,-1.5711327E0,-5.9252983E-1,3.0253205E-1,1.2856104E0,-1.9343855E0,-1.3158941E0,-8.4881425E-1,-3.9668104E-1,4.0048525E-2,5.1269907E-1,1.0441971E0,1.5712693E0,-2.2257178E0,-1.7827886E0,-1.1758579E0,-1.6537116E0,-1.1792023E0,-7.1992344E-1,-3.0530047E-1,-6.575745E-1,2.837605E-1,-4.844566E-2,7.554478E-1,4.2224273E-1,9.1899997E-1,1.1740692E0,1.4337262E0,1.723626E0,-1.2624383E-1,-2.095216E0,-1.6466224E0,-2.044777E0,-1.3388988E0,-9.3298125E-1,-1.8066964E0,-1.4705882E0,-1.7627246E0,-1.1137227E0,-6.3854134E-1,-9.677587E-1,-4.42789E-1,-5.2378334E-2,-8.0548805E-1,-4.9433663E-1,-3.8787875E-2,3.5612553E-1,-3.2663438E-1,9.4455265E-2,6.6218406E-1,9.9967355E-1,1.8267131E-1,5.5356973E-1,1.0981743E0,8.554609E-1,1.0568342E0,1.2577446E0,7.766175E-2,1.3946081E0,8.243686E-2,9.210552E-2,-9.8924614E-2,-1.1381342E-1,-9.7044036E-2,-7.63639E-2,-1.14106156E-1,-9.723191E-2,-7.6606505E-2,-6.026819E-2,-6.81159E-2,-4.2900022E-2,-1.0276945E-1,-8.590572E-2,-7.978494E-2,-6.653116E-2,-9.028234E-2,-3.5865642E-2,-5.0376702E-2,-6.5412626E-2,-3.9219636E-2,-2.0952068E-2,-5.281802E-2,-4.0941246E-2,-7.4675903E-3,-3.7164737E-2,-7.8114117E-3,6.717734E-3,-4.82662E-2,-3.3903476E-2,-4.5299813E-2,-2.287285E-2,-1.1275091E-2,1.0082575E-2,1.5460684E-2,3.6263324E-2,-2.3497129E-2,-1.0241874E-2,1.36924805E-2,-4.46547E-3,2.7827745E-2,3.8092665E-2,4.685117E-2,6.460856E-2,1.744699E-3,1.7774245E-2,3.4147184E-2,2.091357E-2,4.991288E-2,5.902327E-2,2.7994756E-2,4.9610358E-2,5.3626765E-2,-3.9070107E-2,5.8416735E-2,6.8053916E-2,5.9965428E-2,7.367503E-2],"categories":[],"categories_nodes":[],"categories_segments":[],"categories_sizes":[],"default_left":[0,0,0,0,0,0,0,0,0,0,0,0,0,0,0,0,0,0,0,0,0,0,0,0,0,0,0,0,0,0,0,0,0,0,0,0,0,0,0,0,0,0,0,0,0,0,0,0,0,0,0,0,0,0,0,0,0,0,0,0,0,0,0,0,0,0,0,0,0,0,0,0,0,0,0,0,0,0,0,0,0,0,0,0,0,0,0,0,0,0,0,0,0,0,0,0,0,0,0,0,0,0,0,0,0,0,0,0,0,0,0,0,0,0,0,0,0,0,0],"id":11,"left_children":[1,3,5,7,9,11,13,15,17,19,21,23,25,27,29,31,33,35,37,39,41,43,45,47,49,51,53,55,57,59,61,-1,63,65,67,69,71,73,75,77,79,81,83,85,87,89,91,93,95,97,99,101,103,105,107,109,111,113,115,-1,117,-1,-1,-1,-1,-1,-1,-1,-1,-1,-1,-1,-1,-1,-1,-1,-1,-1,-1,-1,-1,-1,-1,-1,-1,-1,-1,-1,-1,-1,-1,-1,-1,-1,-1,-1,-1,-1,-1,-1,-1,-1,-1,-1,-1,-1,-1,-1,-1,-1,-1,-1,-1,-1,-1,-1,-1,-1,-1],"loss_changes":[1.0400881E4,1.2775469E3,1.6554595E3,2.2507227E2,1.4657812E2,1.8048062E2,2.4648389E2,4.068286E1,6.641333E1,5.310504E1,3.9398468E1,3.1415436E1,3.957907E1,3.067627E1,3.2021973E1,8.06189E0,2.0534668E1,3.933972E1,9.137451E0,1.1562775E1,1.7816833E1,4.281823E1,9.984207E0,9.070206E0,4.2527264E1,1.0544495E1,4.1617752E1,1.0433777E1,8.03894E0,1.9057617E0,3.8486328E0,0E0,6.529541E-1,1.2698364E1,9.098511E-1,1.3918945E1,1.2190857E1,1.4252319E0,1.326416E0,2.3041534E-1,5.312744E0,2.1793243E1,2.0908813E0,7.025629E1,8.456598E0,3.9074402E0,2.7281914E0,3.2777958E0,5.265251E0,6.239723E0,2.3331663E1,3.3555298E0,1.2447662E0,1.2015962E1,1.4697815E1,9.4296265E-1,2.9434265E1,1.2498383E1,3.5097656E0,0E0,8.494263E0,0E0,0E0,0E0,0E0,0E0,0E0,0E0,0E0,0E0,0E0,0E0,0E0,0E0,0E0,0E0,0E0,0E0,0E0,0E0,0E0,0E0,0E0,0E0,0E0,0E0,0E0,0E0,0E0,0E0,0E0,0E0,0E0,0E0,0E0,0E0,0E0,0E0,0E0,0E0,0E0,0E0,0E0,0E0,0E0,0E0,0E0,0E0,0E0,0E0,0E0,0E0,0E0,0E0,0E0,0E0,0E0,0E0,0E0],"parents":[2147483647,0,0,1,1,2,2,3,3,4,4,5,5,6,6,7,7,8,8,9,9,10,10,11,11,12,12,13,13,14,14,15,15,16,16,17,17,18,18,19,19,20,20,21,21,22,22,23,23,24,24,25,25,26,26,27,27,28,28,29,29,30,30,32,32,33,33,34,34,35,35,36,36,37,37,38,38,39,39,40,40,41,41,42,42,43,43,44,44,45,45,46,46,47,47,48,48,49,49,50,50,51,51,52,52,53,53,54,54,55,55,56,56,57,57,58,58,60,60],"right_children":[2,4,6,8,10,12,14,16,18,20,22,24,26,28,30,32,34,36,38,40,42,44,46,48,50,52,54,56,58,60,62,-1,64,66,68,70,72,74,76,78,80,82,84,86,88,90,92,94,96,98,100,102,104,106,108,110,112,114,116,-1,118,-1,-1,-1,-1,-1,-1,-1,-1,-1,-1,-1,-1,-1,-1,-1,-1,-1,-1,-1,-1,-1,-1,-1,-1,-1,-1,-1,-1,-1,-1,-1,-1,-1,-1,-1,-1,-1,-1,-1,-1,-1,-1,-1,-1,-1,-1,-1,-1,-1,-1,-1,-1,-1,-1,-1,-1,-1,-1],"split_conditions":[6.105E0,4.545E0,7.7025E0,3.6466668E0,5.284E0,6.7916665E0,8.6075E0,3.0233333E0,2.023E3,4.71E0,2.023E3,2.021E3,2.021E3,8.1925E0,9.075556E0,2.55E0,2.023E3,2.022E3,4.127E0,3.65E0,2.023E3,2.022E3,5.71E0,5.45375E0,2.022E3,7.7182355E0,2.022E3,2.021E3,6.6401424E0,2.021E3,9.391E0,-1.2624383E-1,2.023E3,2.021E3,5.841596E0,5.9990134E0,4.13E0,5.8568254E0,6.056731E0,2E0,2.023E3,2.022E3,5.0016665E0,2.021E3,5.83E0,6.133219E0,4.56E0,6.46E0,7.894375E0,6.4275E0,2.023E3,7.21E0,8.315556E0,7.27E0,2.023E3,6.5969605E0,2.022E3,4E0,6.7337832E0,7.766175E-2,2.022E3,8.243686E-2,9.210552E-2,-9.8924614E-2,-1.1381342E-1,-9.7044036E-2,-7.63639E-2,-1.14106156E-1,-9.723191E-2,-7.6606505E-2,-6.026819E-2,-6.81159E-2,-4.2900022E-2,-1.0276945E-1,-8.590572E-2,-7.978494E-2,-6.653116E-2,-9.028234E-2,-3.5865642E-2,-5.0376702E-2,-6.5412626E-2,-3.9219636E-2,-2.0952068E-2,-5.281802E-2,-4.0941246E-2,-7.4675903E-3,-3.7164737E-2,-7.8114117E-3,6.717734E-3,-4.82662E-2,-3.3903476E-2,-4.5299813E-2,-2.287285E-2,-1.1275091E-2,1.0082575E-2,1.5460684E-2,3.6263324E-2,-2.3497129E-2,-1.0241874E-2,1.36924805E-2,-4.46547E-3,2.7827745E-2,3.8092665E-2,4.685117E-2,6.460856E-2,1.744699E-3,1.7774245E-2,3.4147184E-2,2.091357E-2,4.991288E-2,5.902327E-2,2.7994756E-2,4.9610358E-2,5.3626765E-2,-3.9070107E-2,5.8416735E-2,6.8053916E-2,5.9965428E-2,7.367503E-2],"split_indices":[3,3,3,3,3,3,3,3,0,4,0,0,0,3,3,3,0,0,3,4,0,0,3,4,0,4,0,0,2,0,3,0,0,0,2,2,4,2,2,5,0,0,3,0,3,2,4,3,4,3,0,3,4,3,0,2,0,5,1,0,0,0,0,0,0,0,0,0,0,0,0,0,0,0,0,0,0,0,0,0,0,0,0,0,0,0,0,0,0,0,0,0,0,0,0,0,0,0,0,0,0,0,0,0,0,0,0,0,0,0,0,0,0,0,0,0,0,0,0],"split_type":[0,0,0,0,0,0,0,0,0,0,0,0,0,0,0,0,0,0,0,0,0,0,0,0,0,0,0,0,0,0,0,0,0,0,0,0,0,0,0,0,0,0,0,0,0,0,0,0,0,0,0,0,0,0,0,0,0,0,0,0,0,0,0,0,0,0,0,0,0,0,0,0,0,0,0,0,0,0,0,0,0,0,0,0,0,0,0,0,0,0,0,0,0,0,0,0,0,0,0,0,0,0,0,0,0,0,0,0,0,0,0,0,0,0,0,0,0,0,0],"sum_hessian":[1.2248E4,5.38E3,6.868E3,2.454E3,2.926E3,3.271E3,3.597E3,1.01E3,1.444E3,1.266E3,1.66E3,1.455E3,1.816E3,1.952E3,1.645E3,3.41E2,6.69E2,1.024E3,4.2E2,3.53E2,9.13E2,1.231E3,4.29E2,3.87E2,1.068E3,4.91E2,1.325E3,9.98E2,9.54E2,8.7E2,7.75E2,9.8E1,2.43E2,4.45E2,2.24E2,6.1E2,4.14E2,2.24E2,1.96E2,3.3E1,3.2E2,6.9E2,2.23E2,7.97E2,4.34E2,2.23E2,2.06E2,7.1E1,3.16E2,3.62E2,7.06E2,3.58E2,1.33E2,4.7E2,8.55E2,2.57E2,7.41E2,4.03E2,5.51E2,2.05E2,6.65E2,4.84E2,2.91E2,1.55E2,8.8E1,1.24E2,3.21E2,6E1,1.64E2,2.45E2,3.65E2,5.9E1,3.55E2,5.3E1,1.71E2,9.8E1,9.8E1,3.1E1,2E0,2.11E2,1.09E2,4.13E2,2.77E2,1.36E2,8.7E1,4.04E2,3.93E2,2.79E2,1.55E2,9.6E1,1.27E2,1.5E1,1.91E2,4E1,3.1E1,2.82E2,3.4E1,1.65E2,1.97E2,3.57E2,3.49E2,1.77E2,1.81E2,1.13E2,2E1,2.54E2,2.16E2,4.35E2,4.2E2,1.22E2,1.35E2,2.36E2,5.05E2,4E2,3E0,3.02E2,2.49E2,1.96E2,4.69E2],"tree_param":{"num_deleted":"0","num_feature":"6","num_nodes":"119","size_leaf_vector":"1"}},{"base_weights":[-1.7382613E-3,-9.011539E-1,8.5548145E-1,-1.4960161E0,-4.8968247E-1,4.2747793E-1,1.286938E0,-1.9392163E0,-1.3069793E0,-7.1834046E-1,-2.2152695E-1,2.3769473E-1,6.7893326E-1,1.1035578E0,1.5558635E0,-1.7963568E0,-2.2023208E0,-1.1731205E0,-1.6134862E0,-9.841687E-1,-6.131628E-1,-4.985249E-1,-1.4315043E-1,4.708774E-1,1.5768284E-1,5.985785E-1,8.7466633E-1,1.0048748E0,1.2330408E0,1.452827E0,1.6907321E0,-1.0864695E-1,-1.7036587E0,-1.3130695E-1,-2.1163707E0,-1.3197509E0,-9.6343607E-1,-1.7147275E0,-1.3717083E0,-1.5723366E0,-9.3475163E-1,-5.368343E-1,-8.533791E-1,-1.0252112E0,-4.150962E-1,-6.0660988E-2,-3.9386138E-1,3.195776E-1,6.506009E-1,-9.9662445E-2,2.8910068E-1,7.912811E-1,5.321565E-1,8.393789E-1,7.588322E-2,1.1511139E0,9.5572245E-1,7.7637833E-1,1.2493373E0,7.935493E-2,1.4095731E0,8.199226E-2,9.0331994E-2,-9.309626E-2,-7.395158E-2,-1.0762661E-1,-7.864154E-2,-7.53171E-2,-5.8142122E-2,-5.6612086E-2,-3.866455E-2,-9.576809E-2,-8.061582E-2,-6.944657E-2,-1.82845E-2,-8.1506856E-2,-1.5804196E-2,-4.1789405E-2,-5.6681424E-2,-3.3318102E-2,-1.7022936E-2,-4.655103E-2,-3.4054764E-2,-3.4636647E-2,-8.552407E-2,-1.4997164E-2,-3.5274353E-2,-7.6882355E-3,5.7363547E-3,-2.7189508E-2,-1.221433E-2,1.4535534E-2,4.1063063E-2,2.461193E-2,3.9842483E-2,-3.5120656E-3,-5.8384012E-2,6.0318247E-3,2.209775E-2,2.6239717E-2,4.090444E-2,1.4971648E-2,3.2806616E-2,3.1414703E-2,4.528688E-2,4.398955E-2,5.9967566E-2,3.5113454E-2,5.308296E-2,5.662277E-2,-2.7768416E-2,6.916266E-2,6.008671E-2,6.1828673E-2,7.410201E-2],"categories":[],"categories_nodes":[],"categories_segments":[],"categories_sizes":[],"default_left":[0,0,0,0,0,0,0,0,0,0,0,0,0,0,0,0,0,0,0,0,0,0,0,0,0,0,0,0,0,0,0,0,0,0,0,0,0,0,0,0,0,0,0,0,0,0,0,0,0,0,0,0,0,0,0,0,0,0,0,0,0,0,0,0,0,0,0,0,0,0,0,0,0,0,0,0,0,0,0,0,0,0,0,0,0,0,0,0,0,0,0,0,0,0,0,0,0,0,0,0,0,0,0,0,0,0,0,0,0,0,0,0,0,0,0],"id":12,"left_children":[1,3,5,7,9,11,13,15,17,19,21,23,25,27,29,31,33,35,37,39,41,43,45,47,49,51,53,55,57,59,61,-1,63,-1,65,67,69,71,73,75,77,79,81,83,85,87,89,91,93,95,97,99,101,103,-1,105,107,109,111,-1,113,-1,-1,-1,-1,-1,-1,-1,-1,-1,-1,-1,-1,-1,-1,-1,-1,-1,-1,-1,-1,-1,-1,-1,-1,-1,-1,-1,-1,-1,-1,-1,-1,-1,-1,-1,-1,-1,-1,-1,-1,-1,-1,-1,-1,-1,-1,-1,-1,-1,-1,-1,-1,-1,-1],"loss_changes":[9.372237E3,1.4512363E3,1.1488042E3,2.0063477E2,2.1493695E2,1.4901764E2,1.5111182E2,2.3219482E1,6.7979004E1,5.2323242E1,3.5012215E1,3.319188E1,2.061493E1,2.2348633E1,1.4969482E1,1.28446045E1,3.5489502E0,3.5285522E1,1.0254028E1,1.4080322E1,2.4459595E1,1.5217354E1,2.6054863E1,1.2164497E1,4.4975273E1,1.1815399E1,7.5523987E0,6.468872E0,4.938965E0,1.9328613E0,2.0483398E-1,0E0,1.093335E1,0E0,8.0096436E-1,1.8654907E1,1.4948517E1,4.28833E0,2.2123718E0,2.3892365E0,8.814606E0,2.6074036E1,3.726593E0,9.751293E0,1.0121159E1,1.5530458E1,6.8639336E0,3.3672867E0,4.4019394E0,1.4058014E1,2.260711E1,1.3066406E0,2.040393E1,4.6276245E0,0E0,2.3476868E0,2.0573364E1,1.4855061E1,3.2144775E0,0E0,5.0877686E0,0E0,0E0,0E0,0E0,0E0,0E0,0E0,0E0,0E0,0E0,0E0,0E0,0E0,0E0,0E0,0E0,0E0,0E0,0E0,0E0,0E0,0E0,0E0,0E0,0E0,0E0,0E0,0E0,0E0,0E0,0E0,0E0,0E0,0E0,0E0,0E0,0E0,0E0,0E0,0E0,0E0,0E0,0E0,0E0,0E0,0E0,0E0,0E0,0E0,0E0,0E0,0E0,0E0,0E0],"parents":[2147483647,0,0,1,1,2,2,3,3,4,4,5,5,6,6,7,7,8,8,9,9,10,10,11,11,12,12,13,13,14,14,15,15,16,16,17,17,18,18,19,19,20,20,21,21,22,22,23,23,24,24,25,25,26,26,27,27,28,28,29,29,30,30,32,32,34,34,35,35,36,36,37,37,38,38,39,39,40,40,41,41,42,42,43,43,44,44,45,45,46,46,47,47,48,48,49,49,50,50,51,51,52,52,53,53,55,55,56,56,57,57,58,58,60,60],"right_children":[2,4,6,8,10,12,14,16,18,20,22,24,26,28,30,32,34,36,38,40,42,44,46,48,50,52,54,56,58,60,62,-1,64,-1,66,68,70,72,74,76,78,80,82,84,86,88,90,92,94,96,98,100,102,104,-1,106,108,110,112,-1,114,-1,-1,-1,-1,-1,-1,-1,-1,-1,-1,-1,-1,-1,-1,-1,-1,-1,-1,-1,-1,-1,-1,-1,-1,-1,-1,-1,-1,-1,-1,-1,-1,-1,-1,-1,-1,-1,-1,-1,-1,-1,-1,-1,-1,-1,-1,-1,-1,-1,-1,-1,-1,-1,-1],"split_conditions":[6.3403816E0,4.545E0,7.9566665E0,3.425E0,5.6016665E0,7.25E0,8.826667E0,2.023E3,2.023E3,4.82E0,5.247778E0,2.021E3,7.75E0,8.433572E0,9.234E0,2.7E0,2.55E0,2.022E3,4.224E0,3.65E0,2.023E3,4.2266665E0,2.023E3,6.420697E0,2.022E3,2.021E3,8.7E0,2.021E3,6.09E0,2.021E3,9.545E0,-1.0864695E-1,2.022E3,-1.3130695E-1,5.881812E0,4.0466666E0,4.075E0,5.9146953E0,6.8304176E0,6.178193E0,2.023E3,2.022E3,5.334E0,5.94427E0,6.079507E0,2.022E3,6.2680163E0,8.259512E0,6.4714956E0,7.912124E0,6.419974E0,5.59E0,2.022E3,6.534267E0,7.588322E-2,6.4255953E0,2.022E3,6.24266E0,2.021E3,7.935493E-2,2.022E3,8.199226E-2,9.0331994E-2,-9.309626E-2,-7.395158E-2,-1.0762661E-1,-7.864154E-2,-7.53171E-2,-5.8142122E-2,-5.6612086E-2,-3.866455E-2,-9.576809E-2,-8.061582E-2,-6.944657E-2,-1.82845E-2,-8.1506856E-2,-1.5804196E-2,-4.1789405E-2,-5.6681424E-2,-3.3318102E-2,-1.7022936E-2,-4.655103E-2,-3.4054764E-2,-3.4636647E-2,-8.552407E-2,-1.4997164E-2,-3.5274353E-2,-7.6882355E-3,5.7363547E-3,-2.7189508E-2,-1.221433E-2,1.4535534E-2,4.1063063E-2,2.461193E-2,3.9842483E-2,-3.5120656E-3,-5.8384012E-2,6.0318247E-3,2.209775E-2,2.6239717E-2,4.090444E-2,1.4971648E-2,3.2806616E-2,3.1414703E-2,4.528688E-2,4.398955E-2,5.9967566E-2,3.5113454E-2,5.308296E-2,5.662277E-2,-2.7768416E-2,6.916266E-2,6.008671E-2,6.1828673E-2,7.410201E-2],"split_indices":[1,3,3,3,3,3,3,0,0,4,4,0,4,3,3,3,3,0,3,4,0,4,0,1,0,0,4,0,4,0,3,0,0,0,1,3,3,2,2,1,0,0,3,2,2,0,1,4,2,2,2,4,0,1,0,2,0,2,0,0,0,0,0,0,0,0,0,0,0,0,0,0,0,0,0,0,0,0,0,0,0,0,0,0,0,0,0,0,0,0,0,0,0,0,0,0,0,0,0,0,0,0,0,0,0,0,0,0,0,0,0,0,0,0,0],"split_type":[0,0,0,0,0,0,0,0,0,0,0,0,0,0,0,0,0,0,0,0,0,0,0,0,0,0,0,0,0,0,0,0,0,0,0,0,0,0,0,0,0,0,0,0,0,0,0,0,0,0,0,0,0,0,0,0,0,0,0,0,0,0,0,0,0,0,0,0,0,0,0,0,0,0,0,0,0,0,0,0,0,0,0,0,0,0,0,0,0,0,0,0,0,0,0,0,0,0,0,0,0,0,0,0,0,0,0,0,0,0,0,0,0,0,0],"sum_hessian":[1.2154E4,5.931E3,6.223E3,2.424E3,3.507E3,3.125E3,3.098E3,7.22E2,1.702E3,1.892E3,1.615E3,1.782E3,1.343E3,1.845E3,1.253E3,4.73E2,2.49E2,1.188E3,5.14E2,5.34E2,1.358E3,3.55E2,1.26E3,4.54E2,1.328E3,9.55E2,3.88E2,1.052E3,7.93E2,7.17E2,5.36E2,8.9E1,3.84E2,3.7E1,2.12E2,6.96E2,4.92E2,3.58E2,1.56E2,3.9E1,4.95E2,1.033E3,3.25E2,4.7E1,3.08E2,9.49E2,3.11E2,2.48E2,2.06E2,4.49E2,8.79E2,2.42E2,7.13E2,3.7E2,1.8E1,2.59E2,7.93E2,2.9E1,7.64E2,1.66E2,5.51E2,3.83E2,1.53E2,2.21E2,1.63E2,1.96E2,1.6E1,3.14E2,3.82E2,2.58E2,2.34E2,1.15E2,2.43E2,1.53E2,3E0,3.7E1,2E0,3.34E2,1.61E2,6.21E2,4.12E2,2.21E2,1.04E2,3.3E1,1.4E1,2.22E2,8.6E1,6.2E2,3.29E2,1.54E2,1.57E2,2.36E2,1.2E1,1.01E2,1.05E2,4.38E2,1.1E1,4.19E2,4.6E2,2.4E1,2.18E2,2.49E2,4.64E2,9.1E1,2.79E2,4.2E1,2.17E2,2.36E2,5.57E2,2.3E1,6E0,1.93E2,5.71E2,1.68E2,3.83E2],"tree_param":{"num_deleted":"0","num_feature":"6","num_nodes":"115","size_leaf_vector":"1"}},{"base_weights":[-6.234707E-4,-8.2299465E-1,8.486075E-1,-1.3124098E0,-3.445572E-1,4.7373036E-1,1.24452E0,-1.6616449E0,-1.0380309E0,-5.3027856E-1,-1.2016829E-1,2.8046322E-1,6.8629116E-1,1.0718603E0,1.493276E0,-1.9188291E0,-1.4958781E0,-1.4482683E0,-9.5850676E-1,-8.750127E-1,-4.5208836E-1,-2.7442202E-1,1.51149E-2,1.431589E-1,3.9472115E-1,5.3121513E-1,7.824545E-1,9.6401477E-1,1.1868516E0,1.4179393E0,8.198201E-2,-1.1450847E-1,-1.8354985E0,-1.3765063E0,-1.74204E0,-1.7279953E0,-1.3132708E0,-8.587725E-1,-1.2515143E0,-1.7874188E0,-8.1715876E-1,-3.6651224E-1,-7.117147E-1,-5.730631E-2,-3.502078E-1,2.655398E-1,-7.573059E-2,3.5747302E-1,6.141934E-2,5.870665E-1,3.2516548E-1,7.3390824E-1,4.6014223E-1,6.5304977E-1,8.737875E-1,8.4558624E-1,1.0210302E0,1.3176391E0,1.1352144E0,7.631761E-2,1.3796724E0,-8.542729E-2,-1.0196828E-1,-7.667565E-2,-5.8376428E-2,-1.1193202E-1,-8.5056975E-2,-8.989423E-2,-6.1757635E-2,-5.9429795E-2,-7.186074E-2,-5.048094E-2,-3.1699665E-2,-7.695283E-2,-5.6209773E-2,-1.1673165E-2,-9.325474E-2,-3.302466E-2,-4.975745E-2,-2.4586828E-2,-8.376146E-3,-3.777003E-2,-1.6323118E-2,-1.2662356E-2,4.244083E-3,-2.9330675E-2,-1.0656838E-2,9.932068E-3,3.553753E-2,-1.7071204E-2,1.6104957E-3,6.0979747E-3,2.2771852E-2,-6.0076113E-3,8.656946E-3,1.9817898E-2,3.5890426E-2,5.1207206E-4,2.33061E-2,3.1144558E-2,4.1890796E-2,1.1267935E-2,2.8878381E-2,4.0664744E-2,2.8288547E-2,4.255419E-2,7.033869E-2,4.324485E-2,-3.92573E-2,5.7972312E-2,4.861575E-2,3.617268E-2,6.66558E-2,4.7445934E-2,6.1837077E-2,6.1542E-2,7.2168015E-2],"categories":[],"categories_nodes":[],"categories_segments":[],"categories_sizes":[],"default_left":[0,0,0,0,0,0,0,0,0,0,0,0,0,0,0,0,0,0,0,0,0,0,0,0,0,0,0,0,0,0,0,0,0,0,0,0,0,0,0,0,0,0,0,0,0,0,0,0,0,0,0,0,0,0,0,0,0,0,0,0,0,0,0,0,0,0,0,0,0,0,0,0,0,0,0,0,0,0,0,0,0,0,0,0,0,0,0,0,0,0,0,0,0,0,0,0,0,0,0,0,0,0,0,0,0,0,0,0,0,0,0,0,0,0,0,0,0],"id":13,"left_children":[1,3,5,7,9,11,13,15,17,19,21,23,25,27,29,31,33,35,37,39,41,43,45,47,49,51,53,55,57,59,-1,-1,61,63,65,67,69,71,73,75,77,79,81,83,85,87,89,91,93,95,97,99,101,103,105,107,109,111,113,-1,115,-1,-1,-1,-1,-1,-1,-1,-1,-1,-1,-1,-1,-1,-1,-1,-1,-1,-1,-1,-1,-1,-1,-1,-1,-1,-1,-1,-1,-1,-1,-1,-1,-1,-1,-1,-1,-1,-1,-1,-1,-1,-1,-1,-1,-1,-1,-1,-1,-1,-1,-1,-1,-1,-1,-1,-1],"loss_changes":[8.518877E3,1.4506035E3,8.900703E2,2.917798E2,1.3058365E2,1.2650134E2,1.2372803E2,5.4513184E1,5.4659668E1,4.583197E1,2.965749E1,2.5311165E1,2.1476013E1,2.0260498E1,1.082959E1,1.2010986E1,2.1785645E1,8.190857E0,4.1064697E1,1.5219849E1,3.0844086E1,1.0905579E1,1.726459E1,1.287125E1,1.1609131E1,7.801712E0,1.0113647E1,5.1866455E0,4.116333E0,1.1922607E0,0E0,0E0,7.72229E0,1.6550903E1,1.5743408E0,7.76001E-1,1.2432251E0,3.594568E1,1.1595642E1,1.7372589E0,7.680313E0,2.6206436E1,5.576584E0,4.841349E0,1.5817928E1,5.875164E0,1.598525E1,4.628042E0,1.0853046E1,5.5250244E0,2.8849113E1,1.1507874E0,1.1476616E1,4.8265686E0,5.17984E0,1.0031754E1,2.918396E0,1.1414795E0,1.0231628E1,0E0,3.8918457E0,0E0,0E0,0E0,0E0,0E0,0E0,0E0,0E0,0E0,0E0,0E0,0E0,0E0,0E0,0E0,0E0,0E0,0E0,0E0,0E0,0E0,0E0,0E0,0E0,0E0,0E0,0E0,0E0,0E0,0E0,0E0,0E0,0E0,0E0,0E0,0E0,0E0,0E0,0E0,0E0,0E0,0E0,0E0,0E0,0E0,0E0,0E0,0E0,0E0,0E0,0E0,0E0,0E0,0E0,0E0,0E0],"parents":[2147483647,0,0,1,1,2,2,3,3,4,4,5,5,6,6,7,7,8,8,9,9,10,10,11,11,12,12,13,13,14,14,15,15,16,16,17,17,18,18,19,19,20,20,21,21,22,22,23,23,24,24,25,25,26,26,27,27,28,28,29,29,32,32,33,33,34,34,35,35,36,36,37,37,38,38,39,39,40,40,41,41,42,42,43,43,44,44,45,45,46,46,47,47,48,48,49,49,50,50,51,51,52,52,53,53,54,54,55,55,56,56,57,57,58,58,60,60],"right_children":[2,4,6,8,10,12,14,16,18,20,22,24,26,28,30,32,34,36,38,40,42,44,46,48,50,52,54,56,58,60,-1,-1,62,64,66,68,70,72,74,76,78,80,82,84,86,88,90,92,94,96,98,100,102,104,106,108,110,112,114,-1,116,-1,-1,-1,-1,-1,-1,-1,-1,-1,-1,-1,-1,-1,-1,-1,-1,-1,-1,-1,-1,-1,-1,-1,-1,-1,-1,-1,-1,-1,-1,-1,-1,-1,-1,-1,-1,-1,-1,-1,-1,-1,-1,-1,-1,-1,-1,-1,-1,-1,-1,-1,-1,-1,-1,-1,-1],"split_conditions":[6.49E0,4.8955555E0,8.025E0,3.89E0,5.81E0,7.27E0,8.846666E0,3.27E0,4.1066666E0,4.71E0,6.2902956E0,6.409376E0,6.4714956E0,8.446E0,9.336333E0,2.55E0,2.023E3,3.575E0,2.023E3,3.4825E0,2.023E3,2.021E3,2.021E3,2.021E3,2.021E3,2.021E3,6.561144E0,6.573919E0,2.021E3,2.021E3,8.198201E-2,-1.1450847E-1,2.023E3,2.022E3,3.02E0,4.7E0,5.9040227E0,2.022E3,4.224E0,5.5583954E0,5.9255943E0,2.022E3,5.71E0,5.315E0,2.022E3,7.82E0,2.022E3,6.65E0,2.022E3,6.420697E0,2.022E3,7.6283336E0,2.022E3,2.021E3,8.618E0,4E0,2.021E3,6.0163636E0,2.022E3,7.631761E-2,2.022E3,-8.542729E-2,-1.0196828E-1,-7.667565E-2,-5.8376428E-2,-1.1193202E-1,-8.5056975E-2,-8.989423E-2,-6.1757635E-2,-5.9429795E-2,-7.186074E-2,-5.048094E-2,-3.1699665E-2,-7.695283E-2,-5.6209773E-2,-1.1673165E-2,-9.325474E-2,-3.302466E-2,-4.975745E-2,-2.4586828E-2,-8.376146E-3,-3.777003E-2,-1.6323118E-2,-1.2662356E-2,4.244083E-3,-2.9330675E-2,-1.0656838E-2,9.932068E-3,3.553753E-2,-1.7071204E-2,1.6104957E-3,6.0979747E-3,2.2771852E-2,-6.0076113E-3,8.656946E-3,1.9817898E-2,3.5890426E-2,5.1207206E-4,2.33061E-2,3.1144558E-2,4.1890796E-2,1.1267935E-2,2.8878381E-2,4.0664744E-2,2.8288547E-2,4.255419E-2,7.033869E-2,4.324485E-2,-3.92573E-2,5.7972312E-2,4.861575E-2,3.617268E-2,6.66558E-2,4.7445934E-2,6.1837077E-2,6.1542E-2,7.2168015E-2],"split_indices":[3,3,3,3,3,3,3,3,4,4,2,2,2,3,3,3,0,4,0,4,0,0,0,0,0,0,1,2,0,0,0,0,0,0,4,3,2,0,3,2,2,0,3,4,0,4,0,3,0,1,0,3,0,0,4,5,0,4,0,0,0,0,0,0,0,0,0,0,0,0,0,0,0,0,0,0,0,0,0,0,0,0,0,0,0,0,0,0,0,0,0,0,0,0,0,0,0,0,0,0,0,0,0,0,0,0,0,0,0,0,0,0,0,0,0,0,0],"split_type":[0,0,0,0,0,0,0,0,0,0,0,0,0,0,0,0,0,0,0,0,0,0,0,0,0,0,0,0,0,0,0,0,0,0,0,0,0,0,0,0,0,0,0,0,0,0,0,0,0,0,0,0,0,0,0,0,0,0,0,0,0,0,0,0,0,0,0,0,0,0,0,0,0,0,0,0,0,0,0,0,0,0,0,0,0,0,0,0,0,0,0,0,0,0,0,0,0,0,0,0,0,0,0,0,0,0,0,0,0,0,0,0,0,0,0,0,0],"sum_hessian":[1.2196E4,6.196E3,6E3,3.062E3,3.134E3,3.083E3,2.917E3,1.345E3,1.717E3,1.714E3,1.42E3,1.616E3,1.467E3,1.725E3,1.192E3,5.23E2,8.22E2,2.76E2,1.441E3,3.15E2,1.399E3,6.63E2,7.57E2,7.35E2,8.81E2,5.64E2,9.03E2,8.95E2,8.3E2,7.94E2,3.98E2,9.1E1,4.32E2,5.58E2,2.64E2,8.6E1,1.9E2,1.078E3,3.63E2,1.7E1,2.98E2,1.054E3,3.45E2,1.72E2,4.91E2,2.01E2,5.56E2,2.02E2,5.33E2,2.32E2,6.49E2,1.44E2,4.2E2,3.77E2,5.26E2,2.96E2,5.99E2,2.28E2,6.02E2,1.97E2,5.97E2,2.72E2,1.6E2,3.15E2,2.43E2,1.6E1,2.48E2,7.3E1,1.3E1,1E2,9E1,6.43E2,4.35E2,1.08E2,2.55E2,1E0,1.6E1,1.61E2,1.37E2,6.46E2,4.08E2,3.09E2,3.6E1,7.2E1,1E2,1.79E2,3.12E2,1.76E2,2.5E1,1.6E2,3.96E2,6E1,1.42E2,2.03E2,3.3E2,9.6E1,1.36E2,2.01E2,4.48E2,7.3E1,7.1E1,1.41E2,2.79E2,1.3E2,2.47E2,5.07E2,1.9E1,2.93E2,3E0,1.5E2,4.49E2,7E0,2.21E2,2.16E2,3.86E2,1.85E2,4.12E2],"tree_param":{"num_deleted":"0","num_feature":"6","num_nodes":"117","size_leaf_vector":"1"}},{"base_weights":[4.257298E-3,-8.889728E-1,7.007883E-1,-1.4095248E0,-5.564091E-1,2.4720491E-1,1.0923456E0,-1.7435913E0,-1.2374649E0,-8.2145935E-1,-3.657769E-1,1.167244E-2,4.1402355E-1,8.891327E-1,1.3501452E0,-1.6089085E0,-1.9852893E0,-1.105828E0,-1.5199847E0,-1.2240977E0,-7.555967E-1,-4.9373227E-1,-2.0333487E-1,2.3546784E-1,-6.988828E-2,6.2938106E-1,3.3876207E-1,7.588694E-1,9.8238355E-1,1.2363225E0,1.4925255E0,-1.7958474E0,-1.4475851E0,-2.0065317E0,-4.836503E-2,-1.2498602E0,-9.171608E-1,-1.5718726E0,-6.2057268E-2,-1.5271645E0,-1.1166795E0,-6.800689E-1,-9.77331E-1,-4.0935084E-1,-7.1145034E-1,-1.2772444E-1,-4.5034596E-1,-5.5780526E-2,2.967116E-1,-3.0114305E-1,5.002376E-2,5.4768276E-1,8.521512E-1,1.1330441E-1,4.5483497E-1,9.1909486E-1,6.9458896E-1,1.1305777E0,9.310578E-1,6.76124E-2,1.1989077E0,7.21877E-2,8.079056E-2,-1.0244017E-1,-8.345974E-2,-7.855549E-2,-6.2742E-2,-1.0205715E-1,-6.950376E-2,-7.2389774E-2,-5.606724E-2,-6.3224636E-2,-4.1994456E-2,-1.04149364E-1,-7.7115126E-2,-7.721281E-2,-1.852355E-2,-6.369125E-2,-4.816997E-2,-4.07623E-2,-2.2525117E-2,-5.8610655E-2,-4.472921E-2,-2.6501177E-2,-7.8092157E-3,-4.252855E-2,-2.2953235E-2,-1.159776E-2,1.8527069E-3,-1.5599087E-2,-3.2353714E-2,-3.069072E-2,7.484896E-4,1.2748745E-2,2.9735027E-2,-2.9379344E-2,-1.1830627E-2,1.063814E-2,-5.7981787E-3,2.3484152E-2,3.2354157E-2,3.4039132E-2,4.5623217E-2,7.209214E-3,-2.9435098E-2,2.8969804E-2,1.6504815E-2,-1.5285313E-3,4.6552163E-2,2.1870773E-2,4.1453306E-2,4.2440526E-2,5.7427514E-2,3.6446467E-2,5.1031064E-2,5.1562883E-2,6.340962E-2],"categories":[],"categories_nodes":[],"categories_segments":[],"categories_sizes":[],"default_left":[0,0,0,0,0,0,0,0,0,0,0,0,0,0,0,0,0,0,0,0,0,0,0,0,0,0,0,0,0,0,0,0,0,0,0,0,0,0,0,0,0,0,0,0,0,0,0,0,0,0,0,0,0,0,0,0,0,0,0,0,0,0,0,0,0,0,0,0,0,0,0,0,0,0,0,0,0,0,0,0,0,0,0,0,0,0,0,0,0,0,0,0,0,0,0,0,0,0,0,0,0,0,0,0,0,0,0,0,0,0,0,0,0,0,0,0,0],"id":14,"left_children":[1,3,5,7,9,11,13,15,17,19,21,23,25,27,29,31,33,35,37,39,41,43,45,47,49,51,53,55,57,59,61,63,65,67,-1,69,71,73,-1,75,77,79,81,83,85,87,89,91,93,95,97,99,101,103,105,107,109,111,113,-1,115,-1,-1,-1,-1,-1,-1,-1,-1,-1,-1,-1,-1,-1,-1,-1,-1,-1,-1,-1,-1,-1,-1,-1,-1,-1,-1,-1,-1,-1,-1,-1,-1,-1,-1,-1,-1,-1,-1,-1,-1,-1,-1,-1,-1,-1,-1,-1,-1,-1,-1,-1,-1,-1,-1,-1,-1],"loss_changes":[7.582917E3,9.236587E2,1.2159614E3,1.1745752E2,1.6441797E2,1.24705444E2,1.9132617E2,1.9755371E1,4.9529785E1,3.5220276E1,3.935019E1,2.4055542E1,2.990149E1,2.4253296E1,2.437622E1,1.12126465E1,3.421875E0,2.4478882E1,4.3428345E0,4.4801025E0,1.8996399E1,1.9200775E1,1.5593483E1,6.295225E0,2.6802471E1,8.269272E0,3.6036255E1,8.2499695E0,8.044312E0,2.3041992E0,1.9603271E0,3.2439575E0,4.0045776E0,2.3259888E0,0E0,1.1909363E1,9.995605E0,2.2736206E0,0E0,3.5708618E-1,2.2413635E0,2.6910004E1,3.7246094E0,2.3349274E1,9.96759E0,1.1052117E1,5.133274E0,2.4570158E0,3.4675503E0,5.9608116E0,1.7231712E1,2.4407043E0,6.91452E-1,1.0273479E1,1.3947937E1,2.7971497E0,2.1079407E1,5.595703E-1,1.544043E1,0E0,6.7417603E0,0E0,0E0,0E0,0E0,0E0,0E0,0E0,0E0,0E0,0E0,0E0,0E0,0E0,0E0,0E0,0E0,0E0,0E0,0E0,0E0,0E0,0E0,0E0,0E0,0E0,0E0,0E0,0E0,0E0,0E0,0E0,0E0,0E0,0E0,0E0,0E0,0E0,0E0,0E0,0E0,0E0,0E0,0E0,0E0,0E0,0E0,0E0,0E0,0E0,0E0,0E0,0E0,0E0,0E0,0E0,0E0],"parents":[2147483647,0,0,1,1,2,2,3,3,4,4,5,5,6,6,7,7,8,8,9,9,10,10,11,11,12,12,13,13,14,14,15,15,16,16,17,17,18,18,19,19,20,20,21,21,22,22,23,23,24,24,25,25,26,26,27,27,28,28,29,29,30,30,31,31,32,32,33,33,35,35,36,36,37,37,39,39,40,40,41,41,42,42,43,43,44,44,45,45,46,46,47,47,48,48,49,49,50,50,51,51,52,52,53,53,54,54,55,55,56,56,57,57,58,58,60,60],"right_children":[2,4,6,8,10,12,14,16,18,20,22,24,26,28,30,32,34,36,38,40,42,44,46,48,50,52,54,56,58,60,62,64,66,68,-1,70,72,74,-1,76,78,80,82,84,86,88,90,92,94,96,98,100,102,104,106,108,110,112,114,-1,116,-1,-1,-1,-1,-1,-1,-1,-1,-1,-1,-1,-1,-1,-1,-1,-1,-1,-1,-1,-1,-1,-1,-1,-1,-1,-1,-1,-1,-1,-1,-1,-1,-1,-1,-1,-1,-1,-1,-1,-1,-1,-1,-1,-1,-1,-1,-1,-1,-1,-1,-1,-1,-1,-1,-1,-1],"split_conditions":[6.105E0,4.37E0,7.664E0,3.425E0,5.1633334E0,6.7033334E0,8.6075E0,2.023E3,2.023E3,4.165E0,5.95125E0,2.021E3,2.021E3,8.065E0,9.106667E0,3.0233333E0,6.5882444E0,2.022E3,4.224E0,3.65E0,2.023E3,2.023E3,2.023E3,5.45375E0,2.022E3,7.6896553E0,2.022E3,2.021E3,2.021E3,2.021E3,9.4925E0,2.021E3,2.022E3,5.881812E0,-4.836503E-2,3.87E0,4.13E0,3.02E0,-6.2057268E-2,6.1456103E0,2.022E3,2.022E3,6.0519824E0,2.022E3,6.217813E0,2.022E3,6.493252E0,4.3745E0,7.894375E0,5.247778E0,2.023E3,7.21E0,7.10375E0,7.9241276E0,2.023E3,4.82E0,2.022E3,6.28E0,2.022E3,6.76124E-2,2.022E3,7.21877E-2,8.079056E-2,-1.0244017E-1,-8.345974E-2,-7.855549E-2,-6.2742E-2,-1.0205715E-1,-6.950376E-2,-7.2389774E-2,-5.606724E-2,-6.3224636E-2,-4.1994456E-2,-1.04149364E-1,-7.7115126E-2,-7.721281E-2,-1.852355E-2,-6.369125E-2,-4.816997E-2,-4.07623E-2,-2.2525117E-2,-5.8610655E-2,-4.472921E-2,-2.6501177E-2,-7.8092157E-3,-4.252855E-2,-2.2953235E-2,-1.159776E-2,1.8527069E-3,-1.5599087E-2,-3.2353714E-2,-3.069072E-2,7.484896E-4,1.2748745E-2,2.9735027E-2,-2.9379344E-2,-1.1830627E-2,1.063814E-2,-5.7981787E-3,2.3484152E-2,3.2354157E-2,3.4039132E-2,4.5623217E-2,7.209214E-3,-2.9435098E-2,2.8969804E-2,1.6504815E-2,-1.5285313E-3,4.6552163E-2,2.1870773E-2,4.1453306E-2,4.2440526E-2,5.7427514E-2,3.6446467E-2,5.1031064E-2,5.1562883E-2,6.340962E-2],"split_indices":[3,3,3,3,3,3,3,0,0,4,4,0,0,3,3,3,2,0,3,4,0,0,0,4,0,4,0,0,0,0,3,0,0,1,0,3,4,4,0,1,0,0,2,0,1,0,2,4,4,4,0,3,3,2,0,4,0,4,0,0,0,0,0,0,0,0,0,0,0,0,0,0,0,0,0,0,0,0,0,0,0,0,0,0,0,0,0,0,0,0,0,0,0,0,0,0,0,0,0,0,0,0,0,0,0,0,0,0,0,0,0,0,0,0,0,0,0],"split_type":[0,0,0,0,0,0,0,0,0,0,0,0,0,0,0,0,0,0,0,0,0,0,0,0,0,0,0,0,0,0,0,0,0,0,0,0,0,0,0,0,0,0,0,0,0,0,0,0,0,0,0,0,0,0,0,0,0,0,0,0,0,0,0,0,0,0,0,0,0,0,0,0,0,0,0,0,0,0,0,0,0,0,0,0,0,0,0,0,0,0,0,0,0,0,0,0,0,0,0,0,0,0,0,0,0,0,0,0,0,0,0,0,0,0,0,0,0],"sum_hessian":[1.2186E4,5.339E3,6.847E3,2.08E3,3.259E3,3.173E3,3.674E3,7.04E2,1.376E3,1.362E3,1.897E3,1.316E3,1.857E3,2.057E3,1.617E3,4.57E2,2.47E2,9.42E2,4.34E2,1.89E2,1.173E3,1.06E3,8.37E2,3.51E2,9.65E2,4.79E2,1.378E3,8.62E2,1.195E3,9.04E2,7.13E2,2.07E2,2.5E2,2.41E2,6E0,5.31E2,4.11E2,3.62E2,7.2E1,4.6E1,1.43E2,8.78E2,2.95E2,7.66E2,2.94E2,6.42E2,1.95E2,6.1E1,2.9E2,3.29E2,6.36E2,3.53E2,1.26E2,4.69E2,9.09E2,2.43E2,6.19E2,3.02E2,8.93E2,2.12E2,6.92E2,5.2E2,1.93E2,6.4E1,1.43E2,1.48E2,1.02E2,2.26E2,1.5E1,2.05E2,3.26E2,7.2E1,3.39E2,1.6E1,3.46E2,4.5E1,1E0,6.7E1,7.6E1,5.51E2,3.27E2,8.4E1,2.11E2,5.18E2,2.48E2,1.88E2,1.06E2,3.93E2,2.49E2,1.16E2,7.9E1,6E0,5.5E1,2.56E2,3.4E1,5.9E1,2.7E2,3.21E2,3.15E2,2.01E2,1.52E2,3.6E1,9E1,4.5E2,1.9E1,4.53E2,4.56E2,3E0,2.4E2,2.14E2,4.05E2,2.1E1,2.81E2,2.77E2,6.16E2,2.07E2,4.85E2],"tree_param":{"num_deleted":"0","num_feature":"6","num_nodes":"117","size_leaf_vector":"1"}},{"base_weights":[1.5658281E-3,-8.4608084E-1,6.73992E-1,-1.3595428E0,-5.4879504E-1,2.4920242E-1,1.0534738E0,-1.7239133E0,-1.2152E0,-7.9100156E-1,-3.581124E-1,2.0808201E-2,3.984312E-1,8.534285E-1,1.2797874E0,-1.5927126E0,-1.9525985E0,-1.1011319E0,-1.4712871E0,-1.2546935E0,